{'iang': [0.3496160986947331, -0.019605916482289407, 0.1294590825556454, 0.18868025672190047, 0.2260638517796505, 0.0021495048180499034, 0.028214859498974638, 0.4140676304532687, 0.29179118234716717, 0.1972932399200653, 0.028137530628345238, 0.15806937798772971, -0.311663600145025, 0.1811294269048837, 0.09382871730791818, 0.29134717639432645, 0.31513675664560253, 0.42610233127264363, -0.27997846919361824, 0.06633668458839372, 0.6494230571434989, 0.22370313180006576, 0.41683491906080977, 0.14718285108547643, 0.2685678379202826, 0.5993029169790675, 0.3487973812878782, 0.36174176626014287, -0.1507794654175569, 0.21550089129839217, 0.2528649528404436, 0.26894526700846705, -0.20340990468455006, 0.10003621308620142, -0.25279767389737023, 0.24374995334092472, 0.21418533256855948, -0.3115787146658718, -0.25857850318914044, 0.15064753111480647, -0.1503618161920862, -0.21137721040656735, 0.13911293321559912, -0.31255976856873474, 0.5563718022496077, 0.3505180500308006, -0.05931463777135324, 0.053604384619936336, -0.054796184423171725, 0.38912219490876937, 0.39886469416827525, -0.2874526063338284, 0.3229208457943722, 0.1167467845141131, -0.29290798234491444, -0.1705973004327913, 0.5808286793907972, 0.2869813265011259, 0.03378504759494316, 0.40524423417625416, 0.5100887647682237, -0.26433662712927836, 0.24791556284974614, -0.3852344275813563, 0.4627986312554346, -0.09526888194589998, 0.4108370538517052, -0.11015660495866383, 0.32658491197844486, 0.07918514877427005, -0.3771793038514809, 0.12260042098998938, 0.46787342422657796, 0.48350918571028784, 0.06694708677618641, -0.024292768651467293, -0.31700598501936905, 0.028735881527376664, 0.5583666822346476, 0.567114238760607, -0.1867492918772747, -0.2899993473048195, 0.07737981154061224, -0.2974051022552934, -0.32168052102555916, -0.33737941874293337, -0.38642595652833883, -0.016746393286630846, -0.2631591580901319, -0.20555259024001307, 0.3274751569281477, -0.12667149343026682, 0.37966822512549475, 0.5431493686130471, 0.08102707788156271, -0.23402682381012269, -0.1592607408774859, 0.5028890763200522, -0.07701211878402815, 0.4226029340537366], 'iong': [0.8642418575473798, 0.10701344038251154, 0.9725699894123097, 0.028024561816521465, 0.4321133443133401, 0.19045372475778208, 0.030074436500141712, 0.8766116031274036, 0.23917193782738508, 0.5752475709667827, 0.853607816682304, 0.9327785338182836, 0.2787468549613476, 0.9625609959240725, 0.6441743281227966, 0.9213276145789207, 0.292531096962337, 0.06725209511915181, 0.09950790873445993, 0.5074767677872322, 0.5392412326619404, 0.9655154930530123, 0.3277316322955026, 0.01081389485999, 0.08682812313359596, 0.02043558553568188, 0.6020899801710853, 0.4400225374145381, 0.11018941332825104, 0.8764109331810452, 0.0835240576343545, 0.836486035822657, -0.014740626458777474, 0.6863303861112778, 0.6806190579642372, 0.34621353329135673, 0.9684752231292372, 0.2407810798507905, 0.7910210468454026, 0.6631983137779243, 0.36990292842881317, 0.7625791189492364, 0.7079606343079142, 0.8705613933707245, 0.6637862563242426, 0.4528164199943777, 0.38557298580402444, 0.4346394093072069, 0.5916373321822013, 0.5098498343694428, 0.6523721367216958, 0.41024696732201466, 0.3320893125554851, 0.4012536068604485, 0.697946777453099, 0.3778725200911553, 0.6794081585481776, 0.6241037401659318, 0.5186830935026633, 0.44683673684798686, 0.9568255044423157, 0.03545233639237763, 0.7588973601285602, 0.13612960820155232, 0.5379235797197144, 0.33930058196515195, 0.71565110480607, 0.3772800653217765, 0.8180069413607062, 0.6456684740126212, 0.93945776800495, 0.4074966951508103, -0.0071985092577397415, 0.029095605562370987, 0.5772118193478986, 0.11708179173273696, 0.5831596853102905, 0.4508597173570556, 0.6845189835249363, 0.5524668349497465, -0.01843056909595824, 0.28978840579189363, 0.24539343655108886, 0.4926682252455468, 0.8999394808820861, 0.16434302817814347, 0.6459821991351031, 0.513920232327816, 0.8408282407967743, 0.950995665985203, 0.3045865031793586, 0.5663235939962568, 0.44557200553265025, 0.4977190078290209, 0.6662227475706257, 0.05538305017881724, 0.24602614198734066, 0.5819034468983408, 0.3358284943368714, 0.7281322987073977], 'uang': [0.5296351984985345, 0.3093861014204823, 0.7680071536333142, 0.1860412586423872, 0.7917382807741264, 0.02583754000920435, 0.8455392408338781, 0.7887216504318444, 0.04807529087403751, 0.6011525718642929, 0.5095745975115455, 0.8448628955649593, 0.6382761676284127, 0.18884001573134998, 0.4854390559875101, 0.45166845157422086, 0.22255389420532032, 0.3868842502007957, 0.7495426815728792, 0.4530857019764896, 0.2974658462489162, 0.3787280715389795, 0.2051863321196027, -0.05192310166583947, 0.16381625689725188, 0.476067518614672, 0.5329722974542271, 0.18896605316823464, 0.8730862588816017, 0.25928746645818246, 0.7095685342678856, 0.867231740450412, 0.1583069326598206, 0.0019601504012081196, 0.06106467760339106, 0.5892150549943443, 0.31591005683403495, 0.2794400325323022, 0.09869374345920087, 0.4700546535624797, 0.24546869259493476, 0.0840053969666369, -0.013586353737019469, 0.15278548909455789, 0.13700515371582675, 0.375569871097884, 0.5648997163696173, 0.6615353224583777, 0.40190342698757653, 0.7809122608464766, 0.055156989877753346, 0.25632704774429205, 0.5630903856834217, 0.1201339649658257, 0.4387868221337255, 0.7434434395532259, 0.11192528227710359, 0.12959311379844787, 0.6006910590928874, 0.016997172809247223, 0.717067418295601, 0.5376005685848215, 0.3744052045391421, 0.5407952599976582, 0.23138809723961426, 0.7064454410646772, -0.023003577028805674, -0.030452828852427144, -0.07611344223377207, 0.8506109780068327, 0.8422939149036998, 0.41615994567856607, 0.7736081601544259, 0.0714360849362376, 0.1410438275102686, 0.16076281368644615, -0.1138395711483628, 0.3914272793482057, 0.45603726002382533, -0.04874983035752591, 0.20387438864825544, 0.05339072188422436, 0.8148264172189529, 0.2855479190321724, 0.011377281305381282, -0.00423865035886322, 0.20935354119825245, 0.7287207244664999, 0.49873580218293595, 0.4824161961681388, 0.05976295198355545, 0.3329272476193189, 0.33838494453424856, 0.7894672585738738, 0.6566802292899863, 0.36434538321687887, 0.6033243249432878, 0.36652009974448724, 0.13487559168546265, 0.1200234434459682], 'ang': [-0.0675253269856504, 0.41958310134121996, -0.33732124957176257, -0.3026422009849964, 0.23000186783578216, 0.3587292321378092, 0.3571452820562287, -0.15939708387782786, -0.10682961909881175, -0.0960533980167343, -0.21917429498865573, -0.0922988388189291, -0.43480843355413584, 0.1587471809336801, 0.23579521727200634, 0.13387961317615588, -0.03661087467049343, -0.4730821605907117, 0.2771663585809685, -0.2945597556709499, 0.18905349899956825, 0.324272010120363, 0.26190624448903954, 0.009885369191048276, -0.3408363110735844, -0.3638528865022208, -0.3879859674063841, 0.2148852761537456, -0.1485002770409082, -0.003143965457309788, 0.17166874203869853, -0.1627289397009144, 0.40495091040066666, 0.2677383746574259, 0.44149049580556793, 0.4791642655686892, 0.1795217861296262, -0.0591487941438446, -0.29414078418305223, 0.5381339681506032, -0.14432262050333577, -0.3806829675128845, -0.20491282757285245, 0.44542187987622167, 0.05149833664343053, 0.2682811534369922, 0.42129392532850685, -0.3376874250966573, -0.4575768073085895, -0.10909526127743538, 0.5080875515094117, 0.3976508416327929, -0.3393604345334658, -0.3648722019339292, 0.4278427474624862, 0.2555264660365904, -0.12722656835595406, -0.059688825395022425, -0.5313042630733303, -0.26508102418310225, 0.2676421921286317, -0.24565451624022408, 0.39793377234676813, -0.505545399570516, -0.2831757562098144, 0.32434979508637535, 0.5874137665776702, 0.01108059259196031, -0.2173663904508079, 0.074689121350616, 0.04254371920634661, 0.35423272668519334, -0.006146249282981351, -0.15540218554631804, -0.02930556610481656, 0.3666918744681735, 0.22609179994065168, 0.1632215370726594, -0.10742138243367594, 0.4242184026221543, -0.4746850865562677, 0.1777519163786891, -0.24873238443734527, -0.1200101906379087, -0.23274801154421335, -0.29599199047345975, -0.26687121087937354, -0.49955826439996404, -0.07313835272612101, 0.34925854094618014, 0.07576467699893075, -0.036331109697588036, 0.12085187723499809, 0.2611923514907253, -0.1524847930050707, 0.09930641989705795, 0.3040121079824199, 0.4152639033195164, 0.03339388688038815, 0.3814272442260233], 'ong': [-0.04540196853287191, 0.29309921244523035, -0.14548573257380112, -0.3176207482199447, 0.017669955124792684, 0.05996201322449163, 0.2054502570439774, 0.560977535648208, 0.18699294879206424, 0.32673110785946297, -0.292550653642296, -0.47861505083682826, 0.3902202498726644, 0.04071616870460266, 0.3913863179730387, -0.16894340389227278, 0.06948597860285223, -0.19378201788452828, 0.07544615551232786, 0.4220266038474354, 0.222274987635613, -0.22532829327125065, 0.042085063559516134, -0.05762709524875735, -0.28049049923427727, 0.06194509472135741, -0.5771016126421946, 0.216107211491503, 0.43496363013661166, 0.05165488734241107, 0.00906382249083861, 0.17354057162574302, 0.028076627476576375, 0.2846054070192742, -0.34110793783654353, 0.503117359195708, 0.25172250614364694, -0.2679299756976079, -0.13469684191010986, 0.13230849063645497, -0.2847592368744171, -0.46660878299981245, -0.03221998400148891, 0.4672726944556977, -0.1919824510025746, 0.3475635023460146, 0.3976060994920764, 0.14355151193662533, 0.46337081470651925, 0.5031617682961033, 0.2419612492660046, -0.10253072233836664, 0.4479988496619716, 0.4755914962310448, 0.520326597884005, -0.3939923847138643, -0.2650132793730752, 0.054409072366696225, -0.06343836209551151, 0.09882886890252364, -0.14539038179768593, -0.3950611505386979, -0.2893813386445287, 0.23072106898137842, 0.24449863568465696, -0.27705046278434287, -0.3264563258606357, 0.06284693387384073, 0.38217402800041317, -0.4593640377976403, -0.2267910177863178, -0.2318037176997876, -0.17610872122973828, -0.23091687803018515, -0.04458818117990476, 0.08253081095718268, 0.0025326940761643425, -0.16806823531240886, 0.1767599852796893, 0.4431730091745134, 0.1967004242913424, -0.4444774982466139, 0.0016745081845231582, -0.19732973341007923, -0.28236724412384506, 0.18438842507355035, -0.06603768362884024, -0.40871316122084334, 0.16953302211254648, 0.3736369435386089, 0.4004182154717776, 0.132091658572276, -0.32179894262842446, -0.30193161390808804, -0.4380408142961078, 0.22162789152533302, 0.17391438287023278, 0.20443616309375567, -0.4175003982628085, -0.3203911903095535], 'eng': [-0.2549572435507647, 0.16676231511609016, -0.0053023493237695256, -0.4765857961330972, 0.4196485487912091, -0.10623408087625119, -0.15846263627809729, 0.1241241355543945, 0.1245565257814702, 0.13980307360332206, 0.11220314257047248, -0.4346295420891802, 0.18872047017444474, -0.32573981316755307, 0.32434450308027196, -0.3904194471118022, -0.16528726385977244, -0.3822598809790608, 0.4203319470367632, 0.087730893066434, 0.5683826412051491, 0.30101329442249586, -0.004781791627675007, 0.06977077073210614, -0.1050203118374129, 0.30515589422725464, 0.08516854035221062, -0.0079367989109148, -0.17405056054936902, 0.029552272669246232, -0.3423079283480254, 0.355676321218875, -0.17671258296014244, -0.44420854705387397, 0.2096266763173784, -0.46138217571402146, -0.4405729527359726, -0.06951161246010296, 0.36241784231429913, 0.5276898947694721, 0.33932337021001857, 0.24729212342442625, -0.0989180201684183, -0.20757003605225757, 0.49562529954263046, 0.4296331787009815, -0.14260069686094015, 0.006094139770980605, 0.31954418435164733, -0.4094937222134478, -0.08408794119721966, -0.04058491078865895, 0.3901051831674407, -0.3702394490303944, 0.21871234351382943, 0.368364137770065, -0.06103541044432929, -0.05238794380475307, 0.07297203310140489, 0.2316578083237417, -0.47078073714669383, 0.33164686857387005, 0.29732840970067176, 0.032940136935373523, -0.4395857762054121, -0.00023167405382696835, -0.23079993828711784, -0.08202374949796098, 0.28434344358415786, 0.4586214447599471, -0.259211846921893, 0.38287025663254376, -0.19002607506799304, -0.23894958487214377, 0.42986994946258456, 0.1987680472886026, 0.011921278820007455, 0.32005965966441113, -0.2208744754512017, -0.23892555278916613, 0.15536662738944465, 0.1626711288825208, 0.09086819412635926, -0.45035463439842777, 0.2873028117965693, 0.24755328944118052, -0.4737120676101832, 0.05158150515210454, 0.39719924532166495, -0.27794357680998477, -0.5300470079454794, 0.10655209125888361, -0.20623606091932342, 0.30794342710374517, -0.3145939808296866, 0.16599930209636057, -0.09687894033526198, -0.03788062945037399, 0.25630651554804407, -0.2709445359575684], 'ian': [-0.024302371342495147, -0.08757500667093883, -0.28658927941165846, -0.3222683372113689, 0.5272411389157499, -0.19137760512355662, -0.3467504846872267, -0.0007826653026100565, 0.43876574330131995, -0.4181628829485581, -0.43432970423108586, -0.1091853759670387, -0.08164533135365828, -0.41802839654386326, 0.2717705986199893, -0.14657985493332354, 0.42923660185435897, -0.03900578007995189, -0.30383177822643176, 0.315701825421438, 0.4186337241716958, 0.3079474213418416, -0.20618480789064664, 0.39660063589578703, -0.45823690186966587, -0.1011617824270235, 0.005639857875509982, 0.43723774580984964, -0.20463725599932225, 0.3910763782907207, -0.09147892452114426, 0.33630010803305743, -0.06250421879378264, -0.29867229538121337, -0.22530978912534472, -0.17287179302533628, 0.18576513985997814, 0.3979201685985344, 0.48752515342358343, 0.6885580574386874, 0.5255530598737699, 0.12925668788058886, 0.3211373923749894, -0.12057390676213668, 0.16836517163008366, -0.049762514766888956, -0.09724123863269825, -0.2664358458997953, 0.38057871687257244, -0.42333705007042527, 0.40611299616396934, 0.30683696572381425, -0.3754935085557511, 0.37044714219891395, -0.4169026902773249, -0.07881849522402468, 0.3951312537629275, -0.3852144230340264, -0.21268995589075626, 0.4983350216981348, -0.39418581318625123, 0.32354798784379935, -0.4631058471437713, 0.5226685441602319, 0.4679374249821289, -0.05013353498333411, 0.3781205976773559, -0.5332075484486414, -0.2538559216623946, -0.07807348907279144, -0.18362256732872054, -0.04546575292878208, 0.5356370534609952, -0.046512960258876475, -0.5182256369956943, 0.2536727566251261, -0.16681482606710277, -0.02269861949243704, 0.18795108455342524, -0.410591414551122, -0.1881776697824968, 0.030348588041183105, -0.3757066164178989, 0.249560904647624, 0.24057287769038263, 0.03161257978994744, -0.09814045294459017, 0.10037033739971583, 0.1883597238401564, -0.004061037819904317, 0.4038406881943965, -0.12780315249560473, -0.008139078935369179, 0.16947450136402797, 0.07789183713747187, -0.18903101019022128, -0.23854684963204556, 0.551112191010275, -0.0901954061334514, -0.197104312946408], 'uan': [0.60510045465069, 0.5195490770041579, -0.15406228896129437, 0.22710751121825148, 0.061990509206597974, -0.3537075022801242, 0.11083722859516099, -0.10224422300186047, -0.18314286370280244, -0.14910474565684229, -0.1981780931518936, -0.3695306135426865, -0.09370737111601704, -0.02021902353430341, 0.5594353578984341, -0.1134395217661031, 0.04163394806620893, -0.4103157680947604, -0.2780319522500674, -0.23963891480797156, -0.2807390008003339, -0.041081021781261856, 0.05802116032945618, 0.15281878301886961, 0.06669266914359008, -0.20532677211944178, 0.26771713854716606, 0.22638732665979666, 0.5502833831542605, 0.0878297565039072, 0.39354382251802117, 0.5352674011805287, -0.04604664349367475, -0.1743722251264032, -0.3461120026239024, -0.0668548872955336, -0.5145670788978174, 0.11932105718581924, -0.04227164295731173, 0.33936882185594935, -0.17298580756887552, -0.08664305960717857, 0.06547555388622253, -0.05705000931416462, -0.06173548135425913, -0.2861862848110515, 0.16455906111726556, -0.37085501604705673, 0.4251571794718824, -0.08675582726041582, -0.22093607063887563, 0.23414522412607422, 0.47119568938128414, 0.3293610293979814, 0.06998694002303865, 0.564780417590462, 0.32302040780492053, 0.5189466757350529, -0.26234142748060285, -0.23156703258159342, -0.03390329920830129, 0.060795264485177976, -0.24544768289737534, 0.44402491263936905, 0.37420621967907897, -0.17321857304912247, 0.3097929197234326, -0.08062209287956967, 0.33047908464779585, -0.2709637027551634, 0.1208879537636367, 0.09797336234130273, -0.0692635836547103, 0.17216899672873712, -0.09007724790155283, 0.5220206185548818, 0.34938877214892233, -0.41994102174953957, -0.0162538455568872, 0.48128241478806855, 0.40665458137227634, -0.39492380282946893, 0.4926992964243152, -0.03343066728500802, -0.22980036829336314, 0.42716898990378416, 0.00708872593993509, -0.06905671241003308, -0.30362431097590725, -0.1503933209416784, 0.1236900607194479, 0.4986918835430541, -0.18862254087949587, -0.18808438187509682, 0.13657691481717657, -0.1833952101078195, 0.339580280994658, -0.12890497300859266, -0.3579620257093793, 0.2717346826580418], 'zh': [-0.04644329893377863, -0.2659814023613446, -0.4765916093870397, -0.37735500128020866, -0.28003319314115727, -0.24252754982937405, -0.42631365646198627, -0.4439679533200881, -0.2728308152264731, -0.15933954998601216, 0.1324136650996483, 0.4979213957935657, 0.4373293683740855, 0.43882925776280485, -0.09168526234363177, -0.32437770534159105, 0.011811944916245851, -0.39974114129583305, 0.21831310263767287, 0.14302109722942294, -0.04053515009396942, 0.2629107476974954, 0.28423160174914686, -0.1405717773337511, 0.13503979093872773, 0.06694275584821599, -0.3230659369780689, -0.344946545573212, 0.16902626874054621, 0.11226875396543204, -0.382768535013035, 0.010467683038991515, 0.5294192702039496, -0.3687263775589965, 0.005733757092915903, -0.23979427076238108, -0.08134578989576052, 0.17774465421317448, -0.11086566490878379, -0.3390357086940368, -0.07427837715634801, -0.46091098025973587, 0.38634719922828353, 0.19542131776774913, 0.27431625007798877, 0.2101884312640358, 0.3979453905284705, 0.304090044861849, 0.19126312960962305, -0.48103212695617514, -0.05128333227660487, 0.37419898460607953, 0.21331166775194102, -0.1464522398118867, -0.6450893819801038, 0.3150494641314864, -0.30881720693041903, 0.40595499317919453, 0.325573001465961, -0.12259019625138738, -0.5292159453681329, -0.1399676275318803, 0.12157617727062804, -0.18831456231277935, -0.260609797229251, -0.23153799812505052, 0.08971615622519519, -0.3997086837800569, -0.279787571489569, 0.34951183099794164, 0.48645573404611325, 0.10716953853189227, 0.47240574599799573, -0.4627474716573684, 0.297815656713754, 0.10218386535237435, -0.2354995203743032, -0.04300769343911767, -0.4468880103985288, -0.33392053466445876, 0.271203146320313, -0.08423072120629477, -0.20654036208208995, 0.23327767294359672, 0.05175210843784052, -0.00013893651326107637, 0.3063634475691138, 0.21135607706739548, 0.1426205096069486, -0.20270542580787548, 0.08142465179532699, -0.32756015476248707, 0.3986637335953331, -0.32742972748746724, 0.5109526845135334, -0.01713068471394878, 0.3544959504579459, 0.22033526442283913, 0.04192137485224791, 0.26061193015427747], 'ch': [0.00937094607098921, 0.43137349212939935, -0.28997779893646863, -0.3109808953086564, -0.37925623365455896, 0.1433183991996652, 0.06523010193423232, -0.22309877015193486, 0.3958158737451716, -0.23565649761053617, -0.4700897478498295, -0.31163621825264065, -0.4501811399827948, 0.3149057877155278, 0.4637954510841832, 0.03182544716954472, -0.10649294593738919, 0.4316910865641433, 0.28396190631545026, 0.4117899389913321, -0.11203268060623522, 0.07538450392039428, 0.4363775031844939, 0.2840157759628976, -0.3690641616941799, -0.005634731885066083, -0.44666309065979326, -0.4207723874962457, -0.0997415574372695, 0.40771061809217424, 0.3840964886818031, -0.10574431732527051, 0.3682677789203522, 0.010229636959820147, -0.11658207103435364, 0.08149204984411189, 0.25717538952838737, 0.17335842224392675, -0.32464658791831497, -0.16380341214068475, -0.35392486008993657, -0.3938372705421977, -0.4978169738791905, 0.46527581247897315, -0.39541785204433993, -0.4215352900207681, -0.3365065334773733, -0.032161616760736284, 0.12575458177679535, -0.3212101574794201, 0.16869540417168566, 0.2417845863436079, 0.15530904255540454, 0.1481963019235073, -0.15522393559752332, 0.29752068974035595, -0.3202409799066797, -0.04565052723542417, -0.4375701277181142, 0.05502995419250387, 0.1044618333334791, -0.36911418861411294, -0.41524510130713127, -0.4257046015350123, 0.19561233074033685, -0.042736807243781635, 0.37874270072097393, 0.12555697850434092, 0.3373857888343401, -0.3187168104503466, 0.4569860040492043, 0.377600902672332, 0.5661407629222617, 0.143647733466301, -0.417809885575236, 0.5442322534185965, -0.04351304113676303, -0.1633770474903186, -0.46059110585516777, 0.3947458067489672, -0.03045815717374141, 0.3164708361533482, 0.19487046231483068, -0.22304115236899974, -0.44373975374042585, 0.341523839459359, -0.2104888601300569, -0.025464379080408703, -0.14917575156736018, -0.06992244904849527, 0.3716542832971887, 0.4066037206041661, -0.16343143429648094, 0.22213202936800458, -0.1602765351151085, -0.18167126579793033, -0.4167550867056272, -0.13053874526952347, -0.14512576317395945, -0.10125233631995618], 'sh': [0.21446541267759664, -0.02114624920623984, -0.20367739794126152, 0.032329109467629236, -0.2933161709784931, 0.15694713783656564, 0.4630974724734359, -0.3082601614367668, 0.490451070967644, -0.11642128448838754, -0.4854228357441658, -0.11796998252069962, -0.3579784332119446, -0.17458514005219936, -0.1770897392538792, -0.13754889210457025, 0.27290527274688753, 0.271669783478997, -0.5324652373208268, 0.11952964305659328, 0.43505626268501424, -0.19430729135281627, 0.4502805522438277, -0.1019864556633362, 0.17771858805428947, -0.41898175421367395, -0.313683210712335, 0.3344535239692655, 0.41130781265354194, 0.47847880141316446, 0.048713265108870064, -0.16912765536593594, -0.3706862323464804, 0.27288128809329, -0.3196319436904558, -0.018591027053164472, -0.5370697755545953, 0.13438382971261548, -0.47326575258963116, 0.0920973271012967, -0.06357979432433977, -0.04577801140381035, -0.28326037092393597, -0.06973294365495868, -0.21201492399678834, 0.13842658837260402, 0.27409443774969666, 0.49895079729261094, -0.1288361198002016, 0.09118804802459413, -0.20880107404024145, -0.1952175678803006, 0.20460226240644505, 0.10222894443626958, 0.19558275321799923, -0.16383387980128142, -0.0070193995523112965, 0.2582774520304995, 0.4969374710510295, -0.3182921691877724, -0.1771680974735829, -0.34714954024288774, 0.2334748077868486, -0.1330007736704689, -0.19673100678668753, 0.034560313239695516, 0.4904144879320799, 0.5249236351179182, -0.3488265089398312, 0.3183232431117735, -0.018974192790522117, -0.003496482780085787, 0.08533960330656497, -0.5758948463104594, -0.3207415316621901, 0.3201676859256154, -0.2325638122085767, 0.07939460959348055, -0.27911063069877967, 0.18914254156317364, 0.3580125933766042, 0.39796634342254117, -0.4804551684623805, -0.25535916166834577, -0.31959752320623025, -0.15803181681314624, -0.2985506412464346, -0.20926013895257636, -0.04858663771061479, -0.10152392105389042, 0.11861683739528109, 0.15853344932736937, 0.32019069972045583, -0.2074405385041036, 0.540287248953209, 0.05085842712754847, -0.47475224389414744, 0.3866593291177622, -0.5500227702988927, 0.26412648248389325], 'an': [0.3182826244652785, -0.3336479677115142, 0.2308301014711022, 0.2508318439880209, -0.31793328937404935, -0.12310402924785419, 0.273104279428509, 0.21435531095738192, 0.29795344575151944, -0.012982825166227757, -0.23421763538731363, -0.34278815371881394, -0.09524786392154669, 0.20556208349316324, -0.35772884924043064, -0.27499844956129105, -0.03197924468844131, 0.09598922259801387, -0.3764791477482915, 0.0607567766403142, 0.5452702876220819, -0.4100731534907895, -0.25077500642967, 0.021038649318610124, -0.42602186491354804, 0.3284588564137591, 0.24026253203866527, -0.024326520287945703, 0.2944416079110633, 0.5174169780135085, -0.07203376371236803, 0.2536507656282657, 0.38513846817261493, -0.20354400300567885, -0.33332761378132864, -0.27186284411945616, 0.17687668584737254, 0.3111408811350926, -0.49216706947818295, 0.5815075629778705, -0.15756959928928735, -0.20444504093948765, -0.04724494131358175, -0.1358370747299752, -0.17012988194844464, -0.02432266717058768, -0.1466905687898789, 0.1473200848956912, 0.2614818408171173, -0.010710405921923872, 0.09930310128095328, 0.26929570407768005, -0.027536836083418146, -0.18474161966499078, 0.3361325975469749, 0.17588845318396568, 0.2794070146789409, -0.4156003237771268, -0.3187386869122655, -0.2704540352583739, 0.25295341617891975, 0.277623596888634, -0.3192433044524091, -0.4120435884243432, 0.29313098243354674, 0.5125870755121865, 0.39630471173581955, -0.5517606597405131, 0.1315795182296071, 0.21362430461563758, -0.20047378966902818, 0.3390502342293688, 0.44594808138448033, -0.25037623303390744, 0.24599418679226429, -0.37790686722049727, -0.37209972779164086, 0.3257172660619317, 0.3787469411148184, 0.20694522281445893, 0.022817938759671343, -0.44460036872502645, 0.5130960240591768, -0.186836627491548, -0.10562260544571381, 0.30314093042261453, -0.17003601870873658, -0.29972990875300615, -0.09968080829294802, 0.03915917720103023, -0.31979367102076545, -0.06630794721830968, 0.16876416199999197, 0.10371059256720104, -0.15536085464725613, -0.29456622412054895, -0.06771865376795409, 0.04735935613162051, 0.3354692939749705, -0.2890865147206603], 'ao': [0.20223656851613062, 0.1701050838257703, -0.20401710461457356, 0.3596725775823369, -0.22264020014695307, 0.37854189775841895, -0.2705368580263613, -0.38363192865478124, -0.3752584448610709, 0.28320855640790177, 0.38587801909415514, -0.10037006417923214, -0.23965231277226925, 0.039230462654973146, -0.13646839800173746, 0.27245386112595654, -0.1067496195916666, -0.10561792103007929, 0.4459319898479027, 0.26242507775529816, -0.2518872474373837, 0.304447290524507, 0.33572403851667126, 0.24458138574040897, 0.11671771465078302, 0.4900238053395116, -0.5376549155752555, 0.32296397660758025, -0.33230218055313354, 0.48180646161486074, 0.3320361088769916, -0.3107087351463285, 0.1846724744928261, -0.2335113407879754, -0.14143030202928544, -0.14940449618868337, -0.1880007475815143, -0.3571503603535498, 0.40311792969837407, 0.11504623033847924, 0.4631895096437353, 0.08652266091738163, -0.31367651285121556, -0.19468955787262218, -0.4461948663794099, -0.21793518289425284, 0.31283593037965696, 0.011331750323254548, -0.48860425755523407, 0.45153288816326925, 0.31606353132130516, -0.18521196302088092, 0.0179336698369487, 0.007456102482297261, 0.429991280156441, 0.277927943410399, 0.42213201378769283, -0.0665672974002938, 0.25766711882960286, 0.4455697476769883, -0.6008087310826113, 0.16089409521140982, 0.07672108432534536, 0.00243099270445771, 0.329676484031867, -0.18997352458415248, 0.10786940466938232, -0.04315818470995558, -0.44829663560970495, -0.1043846333269047, -0.43594298052249697, 0.46525769707116255, -0.2337834382979073, -0.32279053409642294, -0.3294145944492913, -0.07280826002051849, -0.4637521295401469, -0.41300536352173794, -0.03612206278092764, -0.34105146221960975, 0.011366930503299776, -0.40512462783516684, 0.4094569952123875, 0.15157801893909445, -0.39493209187634787, 0.19922917070426352, 0.29352268165745127, 0.06962091407059581, -0.41902001016694496, -0.34397457250845215, 0.38920399384997684, 0.08140399569056873, 0.09945299098286968, -0.44983562357891266, 0.16712807068428978, 0.18138232189352207, 0.285615502821158, -0.27565926761673004, 0.2621253435205842, 0.16514877694684266], 'en': [-0.020854193428166627, 0.44820111715754946, -0.39225646500081796, 0.07099180222018435, 0.16273319439816897, 0.2206276769048306, -0.48422129338261377, 0.4217314603133519, -0.3380194929765766, -0.4357065965699348, 0.27816110846549713, 0.01104640439989147, 0.3077159573717802, -0.2504898245645141, 0.3138610893295701, 0.2620294057035357, -0.04642887777356386, 0.2864419427902971, 0.29256561954134835, 0.06814443619659862, 0.1961910680064936, 0.06719307459571291, -0.3572898053796388, 0.3056257190993764, -0.2338743217927796, -0.3924898144216443, 0.11322861391626811, 0.0839793463397054, -0.09006725884109187, 0.4120679426396682, -0.4499782561839022, -0.09732125977599233, 0.020724897608356472, -0.09543279946008768, -0.3897347206224586, -0.04185730427034913, -0.6622973961118118, -0.33726942126344583, -0.50684504719685, 0.5809391194975354, 0.2694170960129531, -0.4296305012154937, 0.041579740873003895, -0.282350211095125, 0.12548104725219944, 0.30171496556583066, -0.11622813859564037, 0.16263932957709654, 0.09455990650243522, -0.3189651711524225, 0.23046176567452284, 0.39959624656165427, 0.39066163769430606, -0.5340015288957559, -0.21345455966794333, -0.4369179034942826, -0.19509697904597326, -0.1557129778181322, 0.4300581841716728, -0.19258433830533403, -0.08068219408614397, 0.1676094866454444, 0.09239123559451519, 0.22690326155027107, 0.12519818679641886, 0.4595792220028334, 0.1568940430258323, -0.4850580784929179, 0.057791895697944705, -0.25045209553669456, 0.020693788146182213, 0.18873666789138854, 0.4564827213913357, -0.42586573574283143, 0.41898714462471875, -0.2775649563825783, 0.2956910205293078, -0.02745182920386443, -0.3521468038693011, -0.05415127980654481, 0.26267799420463916, -0.3312648657733179, 0.2500190277865887, 0.37436159882433506, -0.20137462825609465, -0.4023665458057581, -0.056615043019070915, 0.008961240659462641, 0.42291684162354776, -0.060940646297980766, -0.4811947838075497, -0.37683067635275275, 0.028101124273521228, 0.2988403282750807, 0.3594603458993438, 0.3087588259082715, 0.4600242795376719, 0.45265873266718026, -0.010043692369879747, 0.5066120055060559], 'in': [0.1805311693891009, -0.2887116165300138, -0.06126397702865713, -0.1703528765444781, 0.11992257953570006, 0.090282216253569, 0.4314612352747594, -0.1534559958943484, -0.46472530511780796, 0.044509752738250134, -0.24338157379279987, 0.3554534546471033, -0.042949066549740574, 0.08254633286628299, -0.033719709950431796, -0.06170569141978022, 0.012726695255222869, 0.3179339005205748, 0.4495813897594295, 0.17977541167928193, 0.050567785993849104, -0.5533275191817724, -0.2507744052300721, 0.39380180714487906, 0.32476022086793593, 0.4261041069232346, -0.5384279448411655, -0.1712834263126055, -0.19644534931696048, -0.4777461227943217, -0.35805113114626896, 0.1486171830332104, 0.09740518067950847, 0.29690416353327803, 0.21648252986193767, -0.28048074555359337, -0.23619796867458578, 0.14477195343987623, -0.4100409317598681, 0.5580033585771688, -0.1262798220579003, 0.22001474841719235, 0.22177530869952303, 0.10953870712561103, -0.019759663896371498, -0.027453445291218286, 0.37512890042665575, 0.02485682105192258, 0.3205465869192473, 0.21080857549044002, -0.3534547058317345, -0.22710394603179482, 0.16360391442424516, -0.33835995843183014, 0.089957124495434, -0.12145350228889763, -0.2821198552823432, -0.20234652239330114, 0.15602354416258624, 0.3144600208204389, 0.010498286135042174, -0.04820233754711684, -0.3487593302222464, 0.41262114171599856, -0.26578289158818846, 0.11370165237209665, 0.01886198711099181, -0.3490691907757211, 0.0424690468036819, 0.4239313450770235, 0.16104887612798452, 0.28897536372986304, 0.4510562903339183, 0.18643178402428284, -0.19191919591744852, 0.5354143200567152, 0.22000297503400176, -0.26177724306525035, -0.43996643581547296, 0.27991806860583107, 0.2633980071975807, -0.5634523823958387, -0.12863171056008524, 0.015085709187265102, -0.19074073532228275, -0.1354762143169889, 0.1353869646759958, 0.4135465183323539, 0.22030757523510194, 0.4202143320963115, -0.3558374269317294, 0.18215964080343938, -0.5067915946242407, 0.3876904627078865, 0.14844388645839518, -0.24728713566157406, -0.46244419007976867, 0.38505018450475736, -0.16907257086592117, -0.11337759940811987], 'ou': [0.3328681663727761, 0.5302538073042417, 0.14918916389418427, 0.4147446346675508, -0.08523857513313557, -0.5184240775589304, -0.034457172476462614, -0.3276591570050295, 0.02679896471011126, -0.3091219598155646, 0.43981205581173866, -0.39932293023833154, 0.2899961112239481, -0.27620493457524203, 0.3100375396420177, -0.30018612703219083, -0.36531571913635397, 0.21981627749568752, 0.04434469272944307, 0.05810458587240286, 0.16519843156440875, -0.3914320886413904, 0.25190235083949286, 0.09938873607881216, -0.5124348742366561, 0.13857449160503768, -0.4563201428671897, 0.16673575086370152, -0.2881801496693389, -0.08988510473614694, -0.06910582259387502, 0.12752631822006302, 0.438487544950557, -0.5014567341522636, -0.34419919256653503, 0.1025138428458796, 0.09840592144890814, -0.07918784918831145, 0.06802204207921067, 0.6210033655000637, 0.14784158413287624, 0.40964060208484243, 0.1289611188921327, 0.0012362134781889714, 0.12148196558333814, 0.22120724689153354, -0.3978477479848078, 0.16669222569586367, -0.05751480475730264, -0.2939802205769038, -0.35997321098271945, -0.270590123654088, 0.13260346630112027, -0.17932957309941105, 0.4285334729797161, 0.2914708550190231, -0.062212168574852726, 0.4098695578208454, -0.3897748206095947, 0.31563361342698765, -0.10209304025401411, 0.07481084537499094, 0.40127129835560676, 0.4300268548121191, 0.05497620578402385, 0.44006679757912454, 0.33584395660859107, 0.11839814713120628, 0.4951793527940341, 0.15553381510363185, -0.37645176269914854, -0.04750729337084877, -0.13217050855863757, -0.21242252719864593, 0.39183388781413525, 0.06502058493523129, 0.36092662101165623, -0.35799517312723383, -0.3525043388187658, 0.1854383248317009, 0.5105688120132482, -0.5309171515617036, 0.4676997472308396, 0.2892600342208649, -0.23298009631300526, -0.2951313395719204, 0.016617543162123674, -0.42307731025376233, -0.3555437014229184, -0.4677138213544704, 0.38980623346588084, 0.3044067907754109, -0.15990078574874275, -0.1929377276957328, -0.20170179368382943, -0.003817709906612416, 0.2596560941434582, -0.14336796843488836, 0.3495027469280627, 0.5438918666724619], 'uo': [0.3384713303536966, 0.2665189910771579, 0.018953038513332326, 0.3692945601814327, -0.38073295778710764, -0.3992177013302125, -0.3812758661521202, 0.45944693814721393, 0.3378978970387521, 0.4431280686530534, -0.38732184933022623, -0.21594306773648717, 0.3017965166889184, -0.34148669079097344, -0.11653483970785654, -0.31764058862301486, 0.2843196341491821, 0.29217028007125145, -0.3154405295956053, 0.1914041843183039, 0.31345399271777447, -0.24785331698709553, -0.3469225785600999, -0.020027444114792854, -0.19306051513884165, 0.20902408305645476, -0.246388690844868, 0.42401108489253836, -0.10434050692666358, -0.048302800922885365, 0.18974236308869025, -0.4374122432207769, 0.4999687592116375, -0.38037476314986624, 0.44460471132247764, 0.1492037567851213, -0.49574013384091653, 0.12174443305459277, 0.5201800507909715, 0.3375456253642132, 0.21553686255172183, 0.3995349045728972, 0.10896019137407284, -0.33495609058707476, 0.5042804671618071, 0.5010513326319136, -0.35179851532158307, 0.3770802621139701, 0.5220506689939839, 0.18383277213846871, 0.10012741567842946, -0.43893418864988887, -0.21962204582645206, -0.2980930112379771, -0.35814868330637906, 0.32353279079806435, -0.31678879520058373, -0.18006549490110815, -0.4542566671356137, -0.09482047756414382, 0.2837834121220431, 0.39732674939588203, 0.10541787271878876, -0.08022985095430428, -0.14342617960975165, -0.3170594576925587, -0.18304993744322884, 0.43994419223015, 0.0040083721504548305, -0.07872356121655785, -0.4788271465428217, 0.04703907639306888, -0.12311832198631753, -0.19602578928561717, -0.30367630852695565, -0.17808617622637793, -0.044250792176818717, 0.10852003884204274, 0.5045036465307003, -0.34548689556808043, 0.31247533427869806, -0.26616160830135693, 0.1273753944837731, -0.02230453080470915, -0.07439262444438567, -0.44373024041030634, 0.17790543027907207, -0.24332121519973374, -0.10344868771599462, 0.02833238959348452, -0.04943918144331383, -0.024044355547757242, 0.3495013722670886, 0.3473769081162275, 0.4261539071279515, 0.20540601325046742, 0.4650113587028343, -0.2929443231527939, -0.4829458035708634, -0.19077777021356626], 'un': [0.051926267841147386, 0.6238948203594626, -0.061596585390060056, 0.12717919958266344, 0.15517481550413662, 0.2675465438514063, 0.09590864903462593, 0.0753612481548029, 0.2690479302215256, 0.30557853072828156, 0.1287605081026764, 0.03560096528689166, -0.3064392568813009, -0.0754401160007431, -0.08410608681468584, 0.3883699838997523, 0.5854721375261659, 0.4552363072473795, 0.5419396698008329, 0.1689885248916011, 0.5100898786438366, -0.25254356342228235, 0.2972093999432999, -0.35148714919270463, 0.003399164889533777, 0.2597987102013469, 0.2694265480869083, 0.7135571624277967, 0.04083525706527262, 0.6347000866686671, 0.4966022867979213, 0.6275702190752459, 0.49931960686918686, -0.22619465611015988, 0.46663424880403953, 0.18860602994229478, 0.23392480965272205, 0.3032474759904828, 0.6279397502531672, 0.61471663780264, 0.2761546660386128, 0.1845636814720072, -0.11875413251775022, 0.14956133004103075, 0.2973722583427764, 0.647670937036791, -0.2542513884522062, 0.6128061275048079, -0.2390053242529185, 0.10023414166051497, -0.24435169776666296, 0.3631095567671268, 0.4656918350050785, 0.23149436470045562, 0.46920598234446653, 0.5778310016888922, 0.2687499764174914, 0.5923572893943428, -0.19086674260679304, 0.5309063106168024, 0.39631017140080793, 0.4090852637808081, -0.17243747264998427, 0.49560551305790573, 0.46608999529122613, -0.08291373196439272, -0.10556313554274736, 0.6068235867704738, 0.37600933648128493, -0.06572196633062093, 0.1204307361406768, -0.125320764341249, 0.06513772775016667, 0.5981591257866169, 0.36750573472034637, 0.6908865897653081, 0.4852103463991171, 0.6580915345059314, 0.48060322628634644, 0.6559354286344725, 0.19460487073235058, 0.6348153801022871, 0.29607056776312907, 0.25384711073964966, 0.5019015077797914, 0.3350795427063273, 0.20089910236007347, 0.6142669729426309, 0.6787630433168641, -0.05327531723357452, 0.5068906614467606, 0.5251681966203143, 0.21649146008048575, 0.49506536725094236, 0.44491472554202577, -0.1831829503958691, -0.282153462878254, 0.7122386049169761, -0.08078588599167859, -0.11862838602507624], 'ng': [0.4175489263465374, 0.6565498578554649, 0.018510192040346457, 0.0531543448122626, 0.25109380414808485, 0.3071600266948354, 0.061675624701326724, 0.30301031796193595, 0.07126024565073048, -0.030320885881898435, 0.0341567392707135, -0.0883456704709606, -0.19883602059912328, -0.08586834854788833, -0.42200934297209175, -0.34325499730687703, 0.08410245489452635, 0.5174923311686246, 0.13639406621812225, 0.0064170086794593795, 0.34578251139121613, -0.017524739518314705, 0.02417634451171912, 0.03828203876402107, -0.2084431066744426, 0.28918150638973755, -0.006656284037965298, -0.04342678172798456, 0.2080526410474364, 0.3590043544840096, -0.426655413569442, 0.03962383309802911, 0.2815656744664832, 0.13294423673546582, 0.34247398547735475, -0.42064765756024347, 0.19296587061060366, -0.4398551055408519, -0.12294710632203898, 0.22158460574122038, 0.1425202170545016, -0.27114627274743325, -0.08692517256799341, 0.2840236093461391, -0.24450219311393845, -0.3407528704731528, 0.05823113133854117, -0.13960851527884632, -0.20081280102270746, 0.366410994184482, 0.36757019355339277, -0.38389038013109367, 0.1794975195399124, 0.3411756216031777, -0.4514660373811238, -0.1019996936565303, 0.3046312137028837, -0.10624595093136414, 0.16793681090628493, -0.20539213359834252, -0.003701819906712947, 0.04698446701211826, 0.09710361590744658, -0.26135657808324203, -0.11054512862666861, -0.15673205294428488, -0.3392368427747792, 0.31493816225791826, -0.2291411590380405, -0.3461855993569154, 0.019360749467601118, -0.08533746226003139, -0.27213857333671504, -0.4038820690349534, 0.6555673766786592, -0.10057692145324408, -0.11845675655070466, 0.2193155782966824, -0.0010408881707413922, -0.3292419930062967, 0.16497439672241374, -0.32056997225894884, 0.015375413804382412, -0.02310449928033915, -0.28571506016203985, -0.2200191121702613, -0.00860492359620498, -0.15069919642547966, 0.007020536504217963, 0.4019848796947685, -0.29694241136834487, 0.15171670327202627, 0.5125067623399111, 0.0893832513254964, -0.3373380615923101, 0.40781595591385816, -0.13320848632652255, -0.03360558659778677, -0.1517678909697937, 0.2485277373815457], 'ei': [0.2288965293627429, 0.05999064543601943, 0.27322966035250384, -0.004588547333619579, 0.5933508194355782, 0.3182033156144258, -0.3753331458076587, -0.2873170634380134, 0.37338254792147246, 0.4114238535292443, 0.1795378901345946, -0.5529203443252322, -0.070180202324158, 0.002865528042849366, 0.14223593912500573, -0.32549373878013704, -0.32183744589863034, -0.40575834781490777, 0.395716709045042, 0.5628170382573828, -0.328892157050615, 0.26595528354858083, 0.007525082487840057, -0.11121950383675124, -0.5601364426666778, 0.35398129244635207, 0.07085012481424707, -0.06949182334369806, 0.30545420065723605, 0.3195331925735278, -0.3239664203442455, 0.09067594427449464, 0.3763626659697461, 0.2963985737928743, 0.29375518944285844, -0.35421315697504796, -0.34333032728790075, 0.13504049936979995, 0.23551325474987606, -0.15047560827299863, -0.2957815879902408, 0.27591666709696183, -0.3933795365191397, -0.05530455892040874, 0.09963032378385407, 0.25202065078424, -0.46045564630691427, -0.36076483938241405, -0.002225369377315039, -0.03629322234689979, -0.3662989143846244, -0.38196832811464376, 0.11292608757594236, -0.3639318174938271, -0.3636927564926688, 0.2725388459144044, 0.052569411037918304, -0.038318191018058355, 0.005309771755872123, 0.4594909895664767, -0.19529146879560186, 0.2730430793711991, 0.006715146696148995, 0.24765210710158073, -0.2799784577511899, -0.35989091578000326, 0.04942909578777823, -0.28434291408808754, 0.24147520168141276, -0.46122406030051266, -0.2651788022670345, -0.01195187151801142, -0.05930156863402696, -0.22283695328487163, -0.07072777620264453, 0.45129246876096607, 0.45944728006218655, -0.2682690559056865, 0.48317107082598687, 0.31285456105374726, 0.26422266571534314, 0.4348685431094573, -0.45784307801900787, 0.4166018201760976, 0.37563840495231166, -0.13782386071251743, -0.19466419609028981, 0.2168192764172314, 0.07651460493807977, 0.25540524688309146, -0.29840485815493617, -0.07049876481437785, -0.07460257332783621, -0.06321786787594533, 0.44218326649675715, -0.020643673956910333, 0.24034121796495708, -0.015144978899070658, 0.34813076111855656, 0.011763135677563043], 'ia': [0.23687823711043166, 0.44816829571828143, -0.12161917336182025, -0.23595119144947024, 0.28494373276658264, -0.2662964980448489, -0.11461194757025273, 0.0797121596034442, 0.3521769005604136, 0.38337837015560017, -0.43913228176206726, 0.41026423085905905, -0.30061192163074796, -0.4633039578983423, -0.27462026600604184, -0.24137092486119185, -0.3991275290796494, 0.04009927649876126, 0.1351927175205929, 0.11492173423546503, -0.20110313849457026, -0.38724505392751174, 0.15522152214432028, -0.09292918900416185, -0.15122312574454458, 0.2799701398083196, -0.31721977073767577, 0.4168564444787463, 0.1384409559195734, 0.17336155171808998, 0.22225572327079945, -0.24320863037249538, 0.2821782942722536, -0.4191820757934094, -0.32696946997585113, 0.3044018658128329, -0.036562110313104225, 0.2657413027168639, 0.27539258066862554, 0.6751370705078894, 0.21862233765224107, 0.18966283633157618, 0.1520347397107465, 0.22692136231642973, -0.44684273462354424, 0.08037988557382429, -0.04144299004148393, -0.3298082072145943, 0.3630829564911238, 0.30346811861949874, 0.4098130642721706, 0.40976530977248987, 0.5630033245342828, 0.08099955363979765, 0.3371957794360979, 0.31327034147578886, 0.3115441321163206, -0.11578935310340861, 0.1469865859193812, 0.2407421814331776, -0.20992619313401792, -0.3317391782211319, -0.030100137159908197, -0.21755184611865666, -0.14706811506110276, 0.5710650549028905, 0.3239466063188839, -0.015066213433448156, 0.1904825680276838, -0.5414058655267393, 0.5671304779766337, -0.4800374895951593, -0.061395851860373295, 0.14931343172133718, -0.332461828271012, 0.11339747432028857, -0.044200446089288255, -0.15625725233322907, -0.1946906065372217, -0.21044852180390947, -0.07692819160443864, 0.05949520515155516, 0.13204542810699288, 0.02360128553072184, -0.3208028666071728, -0.0463847161435584, 0.24925004092481112, 0.15039904234848525, 0.5327132158527051, -0.1498689438492891, 0.3069212124164938, -0.20504906058095165, 0.3232344536509339, 0.472770767125023, -0.08472413440862793, -0.13103311228010342, -0.348012437662271, 0.35509042467238344, -0.12081301084013475, -0.28182177162840055], 'ie': [0.5449175624059758, 0.38273888844440856, 0.1533761676977325, 0.3243169393716508, -0.1825337188910445, 0.24780817296048266, -0.3799449674843372, 0.4046426167701054, -0.07630445148586343, 0.44237242376735875, -0.021232047390555467, -0.2515649750428063, -0.3087712968922215, -0.16396594775291662, 0.1251771396998899, -0.4341647471811416, -0.26498489636079264, 0.20308702047259664, 0.14968371772301384, 0.4658395701107928, 0.44119597996953935, -0.15403608405130637, 0.006349046503846061, 0.4866509866525888, -0.15929276573146098, 0.6145251530240974, -0.16236982436629419, 0.4198456453483979, 0.1193559463386317, 0.10389806957874981, 0.05479560648613338, 0.3301780286100716, -0.15785236222763827, -0.16880793355707854, -0.2477433147021979, 0.22204710869261127, 0.4205746507029164, 0.2303651359321319, 0.37235748888813514, -0.10470165365979828, 0.2349356006802048, -0.12830556139073238, 0.1852026658045351, -0.12300615692826908, 0.5377118761229311, 0.46343878132843486, -0.34543744795229203, 0.3088176999801725, -0.0609193503907842, -0.19319725887993744, 0.5428836233285891, 0.045527463539880075, -0.28180362728527136, -0.210303533836094, -0.4124973670394996, 0.43081907039241846, 0.31574479566602914, 0.2251251045535702, -0.3005485100469416, 0.5247002647103874, -0.14917393580031715, -0.4798911446633277, -0.15455906796595836, -0.23476263394120875, 0.3504098346585184, -0.0896064127143472, 0.4687501806475101, -0.12204459741862139, 0.5233713967900384, 0.17287298182438302, 0.2659450242957819, -0.29638705949828553, 0.5031392886931615, -0.46926607290407135, -0.25498270129597633, -0.1992189209888892, -0.2333649979889254, -0.2343996394533033, 0.39298808142085345, -0.029638188938602244, 0.34582310735101407, -0.1353654755206499, -0.09503313249898687, 0.22050589326148198, 0.17767134077276606, 0.31015191108148044, 0.04118741275673456, -0.046467435800139144, 0.38749321929979763, 0.35030452942851187, -0.2641597530325335, -0.26659663682955814, 0.4456515652339676, -0.3634631780474923, 0.34354042861166495, -0.2881493068494109, -0.36286232729304313, 0.2771291352255202, 0.425181116561541, 0.5458572964291798], 'ua': [0.3144428390301254, -0.0579436088317141, 0.7333030774577927, -0.14697490986528258, 0.6604878393115559, -0.2029211829818371, 0.7189797494244822, -0.07949828177426749, 0.5754334041270248, 0.17338821590835274, 0.37980856650691297, 0.09976677481670519, 0.6399078956581353, 0.29369020119689615, 0.0018682477604692418, 0.16266593076609218, 0.4147825417393757, -0.06249643573810452, 0.7127654089363836, 0.32723655755286224, 0.8613863050267972, 0.6270083240676598, -0.15699713786461078, 0.5110097341363432, -0.07303869283656696, 0.3479386033551003, 0.2788954201135493, 0.19028851063353822, 0.3522028556649365, 0.3831879151878083, -0.13454683261509992, 0.5012480001059912, 0.2907952464179282, 0.5947488025617527, 0.2771324814280981, 0.48435632246191934, 0.7428629180105812, 0.33774771769044887, 0.004003112732784805, 0.5919393340569594, 0.3190828128630943, 0.22673091167122544, 0.8314704142908265, -0.09369113059481685, 0.08137582397509585, 0.31355159844934744, 0.3404279485053411, -0.1970287471008469, 0.5091477113036113, 0.416493673407928, 0.5793090309347942, -0.11137812387001098, 0.3831525735082688, 0.6796978611957943, 0.15746319862042454, -0.044532100598430616, 0.7913380778199373, -0.04894832709981582, 0.01309954054828229, 0.28035009260582816, 0.6271498813844959, -0.1098230246367387, 0.2609818724177232, -0.17603061616412646, 0.09063132529605826, -0.032801171896126656, 0.2886124357199574, 0.448013623604659, 0.4734491803739047, 0.6945539815472963, 0.519180816832312, -0.05770406127444264, -0.09177497784070507, 0.3402509547824788, 0.3936649054954146, -0.07552761446700616, -0.10390469695437153, 0.3887885723273294, 0.11225567110946572, 0.24738723588010156, -0.12684471513748583, 0.533891606900586, 0.3876915160164518, 0.4126737170016761, 0.020072239035185128, -0.03266120390384254, 0.5442656516079175, 0.4673696293910339, 0.6939107750195767, 0.7423030149698523, 0.46512225105748534, 0.22978615395320542, 0.07709517090985676, 0.2990396810864415, -0.10353565778914135, 0.02385013364625018, 0.026558664848396005, 0.11026457894961499, 0.06850975173968417, 0.14670257401583922], 'ui': [-0.2912011587884489, 0.09383904435471949, 0.2354253355506081, -0.015083491423322154, 0.1439708922201638, -0.37122313913429317, 0.04281172857301087, 0.11693640415476081, 0.48205550596302943, -0.26097851073734457, -0.4300157549222703, -0.3764387240906446, 0.3741350182213312, 0.40918573567072436, 0.5309521688432778, -0.44843448087862736, -0.2900028707886994, -0.3056320239493705, 0.1765619195416691, -0.21713135022856783, -0.0596583717333627, 0.20070365400255472, 0.1922558940008413, -0.45188524137019315, 0.2824588813285418, 0.012383823985707233, -0.2086832696077688, -0.09237205795744532, 0.19642774481267075, -0.2478560066166743, 0.42000103955240353, -0.4331029844983647, 0.4141490058425954, -0.26839601793642043, 0.06036079245858741, 0.31975785780021443, -0.247628722044979, 0.15592006579917372, -0.33062003323674105, 0.5941873684042248, 0.5430637885638454, -0.021129665787941995, -0.3134191372014305, 0.24827849873321048, 0.3438056362996841, 0.6007093096161974, 0.48445329309487944, 0.35069320104725127, -0.010778351185585358, 0.04175207081784617, -0.17090996558714563, 0.1166128966122825, 0.3844254641458201, 0.0892083838406376, -0.1119205627646474, 0.1750541748617323, -0.24994624903814325, -0.26364594063028135, 0.46385121467611745, 0.5050346856151123, -0.15561423861555299, 0.20971290306071808, 0.09866018166010328, -0.29871548833146394, 0.23711234011757604, -0.22006979147799796, -0.34104533888425276, 0.13270894738870226, 0.36942343488903784, -0.05574171613783243, 0.4487910809373956, 0.45153769921742626, 0.06893868068339515, 0.44713763546844837, 0.1750386374419753, 0.011084180649283444, -0.3134059438579888, -0.24560964592332707, 0.247838449981753, 0.25839864227058296, 0.2760499812804082, 0.14432836638032062, -0.04543401872866922, -0.30617053824636425, 0.16099953354412241, 0.12058254024934163, -0.41097076033655017, -0.06462251193184163, 0.45934482499044144, 0.35946811782250043, -0.29810235611966285, -0.01332725658629686, -0.2905283415970103, 0.2763727047514062, -0.19325654489153926, 0.43541534859101544, -0.027833645888806734, 0.353230355143069, 0.26172931792115334, 0.01916158246705141], 'ue': [-0.10752753296537204, 0.28843227607282423, 0.234757315962408, 0.3866190305947063, -0.10301956882156206, 0.09740354561308007, 0.6601572177911671, 0.04985215962862917, 0.35455837172948457, -0.06506962813992992, 0.5185827574367509, -0.05072613649882603, -0.03318704602312112, -0.07680145100985061, -0.20341724755680576, 0.04565679913067318, 0.7002743630296377, 0.1866832667570556, -0.12255561738134693, -0.09620349503422615, 0.3753270063820657, 0.18586901137336803, 0.4429862591060583, -0.12796883046982546, 0.46446982721162916, 0.7813580884187322, 0.29414439091800637, 0.05221906241145843, -0.020936759902751623, -0.02386716307526512, 0.44179880016144946, 0.38351989418284177, 0.6308108929167152, -0.11538400151965168, 0.6362803670370307, 0.7895358009292764, 0.18773699861104573, 0.3809761710267979, 0.5148095525280871, 0.3283330260407615, 0.6330224425927127, 0.6111181938063119, 0.6370795088697363, 0.08088042055290608, 0.12488728736543764, 0.6695527500477321, 0.09227173141689007, -0.15167335034353713, 0.5235743857387569, 0.28841272344270275, 0.5265177256366601, 0.3521939608583815, 0.3849961697294071, 0.46313089271106384, 0.6361255399713894, 0.18507530745702983, 0.03729981612671646, 0.6098006770388587, 0.26156551764009023, -0.06609379254291824, -0.2599161996547034, 0.622755690539563, 0.1192697670985721, -0.20180061708081254, 0.1702327727395788, 0.19206907058835496, 0.14182556051465517, 0.6617356719258884, 0.6032623815662008, 0.4586009110192944, 0.2560785921258077, 0.03239902277003102, -0.07842719233936944, 0.23505250738517405, -0.07771550404837933, 0.0259978203937732, 0.19214264890744392, 0.3554638269014492, 0.466875098262675, 0.4776719574887269, 0.7086367589223092, 0.6706640605711651, 0.186647105597703, 0.20326115750859225, 0.6369293954918476, 0.10604352261468974, -0.05456404161598046, 0.6374447940377573, -0.2009606390563917, 0.01928348024298989, -0.20915652377054852, -0.12237758204343135, 0.3815892753461775, 0.39308723465371537, -0.020918859313319514, 0.09090157917511374, 0.43885410691335486, 0.036630667340738124, 0.0861534344784963, 0.49485308269644296], 'ai': [0.2927821323785633, 0.4498098537996975, 0.1824686141068414, -0.4232376060412886, 0.3999387990641755, 0.20725228203820165, -0.14001873853012287, 0.2582878219886934, 0.13679271992607955, 0.18689382753959688, -0.2774224682550108, -0.41311459710705023, 0.38573859143906375, 0.39801522709158893, 0.4503580649045508, 0.3556176347113543, -0.503840070972355, 0.32191841397980925, 0.5068443506720427, 0.24776860723791497, -0.15150297718445535, -0.22541878525609593, -0.04337343223017981, 0.0458602457696793, -0.02289419101046024, 0.5761869057751462, -0.5106654497638615, 0.22772085187616548, -0.039547954745638735, -0.14961704684333726, 0.2773357654139988, -0.10495697137301757, 0.37618497959327357, -0.14497290601675356, -0.3830580423817985, 0.3856525365890726, 0.059954119827043836, 0.06795120042898764, -0.2519434288116256, 0.2365580707561349, 0.13511660498587108, -0.09562191869861711, -0.3938810310976358, 0.2577918760654237, 0.4384971669776586, 0.30285700767536095, 0.11426723748958081, -0.4674069705302332, -0.2767941511404064, -0.2289118917158494, 0.34160196418166766, -0.2903201395512492, -0.17290245637835508, -0.01675802613535016, -0.43767208071577773, -0.1504396471606377, 0.4517714332124196, 0.18677459880591912, 0.10721825642637951, -0.1064329796091824, -0.39419133807434487, -0.6300687622587519, -0.24155922698963578, 0.07729839032172618, 0.008429214169816889, -0.013326153853085792, 0.3500352701575638, -0.4867350137716436, -0.40504077940964717, 0.3835738976262655, -0.4557979393882224, -0.010388241303827884, 0.5266603952830898, 0.12983018303698837, -0.01984930969642751, 0.18333667310087481, -0.12577101030759652, 0.10436086829154682, -0.2044272021936425, 0.17105543658167585, -0.3463192265659276, -0.4486651050008971, 0.04345744633589053, 0.3717349850084469, 0.029440473662178644, -0.12836426755535946, -0.5105175800726479, 0.006884357865296994, 0.03308333084183626, 0.19919388138400676, 0.028718054879646432, 0.32978568406132186, -0.03549631468434086, -0.4586041295488733, -0.19502139099777463, 0.04887458686791146, 0.3460725332188602, -0.06344125373411828, 0.3798791794574185, -0.015727013647790406], 'a': [0.5963100963656743, 0.29165500355364793, 0.374586306727659, -0.30317727462561217, -0.10933722762009851, -0.6322144765452862, 0.1632242425583194, -0.24978012621071397, 0.4785878312755628, -0.04767274196118341, -0.1337688842459898, -0.3198479052306017, 0.19744411805118864, 0.42717915892148334, 0.5092716876089032, 0.13211285324614236, -0.05251896500749835, 0.41095426863796125, -0.3118992750052554, -0.4370886504458681, -0.07046920248202007, 0.357178551911441, 0.3119103505187412, -0.15201856722319274, 0.052512060897280353, -0.15130924860618905, 0.1583981266803079, -0.1543021599507644, -0.10930779498546526, 0.03365044596636809, -0.31718283595199787, 0.4006617833351693, -0.02438291646145907, -0.407251998788558, 0.09204675353509724, 0.25889531773402635, 0.08537349010403307, -0.26313618641430747, -0.43817225399699833, -0.3354644495984139, -0.2774144540472684, -0.4145405944193929, 0.011949709207103972, -0.19463638723229382, -0.19138332907977496, 0.32934320897230585, 0.3387874293334561, 0.27703272880734126, 0.10393598608130224, -0.08894565157803397, -0.1167226664077945, 0.026854319212136754, 0.5234797815671007, -0.3247735667380738, -0.39844387785636903, -0.23733123554187174, 0.5138051599159453, 0.34239834252713797, -0.38670341517242723, -0.09780032874657803, 0.250172575293508, 0.03868077931386214, 0.2987235386327702, 0.2611944632020549, -0.31572262542676055, 0.5167008001878072, 0.5290301403815023, 0.3990316623331412, 0.012562684372427312, -0.13858119916474923, 0.11277202407726132, 0.021732089127706192, -0.3908763185970633, -0.17735167561565376, -0.457007199639328, 0.2790892054660049, 0.12496327236867553, -0.01745095400202663, -0.3940517137987773, 0.5030018157111944, 0.009422801542650143, -0.02159784391215793, -0.2962338697807256, 0.3981555647695245, -0.2810412952608782, 0.1097363099934155, -0.44259412452954017, 0.34330926117459015, 0.3084788362494928, -0.025471467022342962, -0.13407983015352248, -0.26224528979171435, -0.1263189027571627, -0.030490062583845887, 0.4628060716232946, -0.33680777092952, 0.30611102726006956, -0.17220431991084906, 0.055859180905070714, 0.13839080050876118], 'b': [0.4477320382334839, 0.42527937131385063, -0.4835610862140881, -0.4974575101957318, 0.06685054290627081, -0.45414943347066355, -0.05911581311863632, 0.3323881422091909, -0.218246953991467, 0.21753073468588932, -0.5406982072447537, -0.0417766206567583, -0.34198712074624443, -0.2753931057240868, 0.4369132811903546, 0.2758672955057456, -0.304897758186628, 0.4931279774674695, -0.2122436697680162, 0.11482111589526679, 0.36202621986386824, 0.28329511159922877, -0.4597911723811883, 0.09708276452835085, -0.5271980786626795, 0.38898596460993956, 0.005525933076649887, 0.4174018083930168, -0.11937007154507373, 0.050066400805624536, -0.010361522124078815, -0.5020259166814592, 0.3774581232898677, -0.20567478249198473, 0.2874418079913155, -0.40919895588232436, 0.10426400453051769, -0.09245063422016775, -0.2580385120989045, 0.23816740305796727, 0.4134883409836727, -0.04110056732837889, -0.38787637254376856, -0.3264957667927605, 0.45657642468213905, -0.09431681044683941, 0.1500765354708738, -0.22851837372337483, -0.2224156264139255, -0.1260239878589854, 0.07668036873284158, -0.06494129198290481, 0.3423442846419952, -0.3616016993928551, -0.15516660797325466, -0.402007749831322, -0.03941815295347063, -0.1931845935120826, -0.3551094821115001, -0.3101084942582484, -0.41692765399273807, -0.39058335213990814, -0.06238513475684614, -0.09438123669266067, -0.20464430026209898, 0.028157164132330444, 0.5371068909212111, 0.5099957037309852, 0.4165385589841445, -0.2767134537345467, 0.09819970704812257, -0.2516722824469692, -0.2306828522252158, 0.1479295471770761, -0.29571797622609836, 0.18420048949629392, -0.20727972980270362, 0.38808372390463747, 0.13582091288965642, -0.38781918638440127, 0.12915477573448267, 0.41679506499917945, 0.37419487644174165, 0.3371034687724435, 0.42231712262205745, 0.10561270468445606, -0.28614642551240865, 0.14452622232625642, -0.3544348671184292, -0.03126327467120477, -0.049760566280664546, 0.06084471353357352, -0.41088412993049167, 0.08915384941920695, 0.25276261385227616, -0.297129457754867, -0.21973469846568508, 0.39762123258640275, 0.024905115305021534, 0.143061966248193], 'c': [0.5607448533643807, 0.5502423500800655, 0.3985029356851919, 0.03131410920657032, -0.21382730285874657, -0.3741887635577408, 0.5248799989617127, -0.40068756773856706, 0.3836578782858903, -0.2454479630051432, -0.29135847953411254, 0.42506979093537933, -0.29901904230408743, -0.05126071824649443, 0.3075961614163352, -0.3779910578247682, -0.33288030863991475, -0.4593537716844946, -0.31361399341856094, 0.22203775634690903, 0.2079971914084434, 0.5330922151110332, -0.058404389204418684, -0.12768189215280487, -0.4990050863095115, 0.6154524751066637, -0.10271478528848445, 0.07964993672164837, 0.6102228333156517, -0.12935092043005367, -0.047320859918153754, -0.5054995079174749, -0.24406204988522268, 0.2891539766734138, -0.3200916503911088, -0.39484202908682536, -0.008516571585167885, 0.060070936436518146, 0.36385145618998554, 0.11603126069177633, -0.34543883539166453, 0.2868123256348389, -0.16230698148229764, 0.5342773609910902, 0.04615119101585477, 0.5968059908439117, -0.2469023077136071, 0.3366174977831819, -0.445374231072931, 0.3276743338685361, 0.5390251474712088, -0.026706459904955886, -0.3512867241049277, -0.22815432615056072, -0.26838064372676984, -0.1452247457663879, 0.4319843729250459, 0.18162176781515654, 0.018903031714811183, 0.01972366497923967, 0.2717106322129576, 0.03841861853635975, -0.3247073975615826, 0.07290093593092743, 0.16655497543836958, -0.18075548808357392, -0.29510155523105475, 0.04499747756152716, 0.1686689750982173, -0.4087622441246743, -0.3326649035606723, 0.32414199789950293, 0.3355104487452229, 0.43988931333210857, -0.29096038036233185, -0.2791757364122396, -0.08968853662789071, 0.4810298412534366, 0.28378913319757954, 0.026473438369835126, 0.274870956296647, -0.3512239138134309, 0.2710546983397913, -0.42005410838462814, -0.14528674503910358, 0.4635538922082889, 0.2948239958324971, 0.29434296917436614, 0.0788933713195399, -0.1772221637515919, -0.21867831086418846, -0.11440742952949383, 0.10517941234845617, -0.08948484933232655, -0.06484044529054227, 0.11877323497455633, 0.23247469319060401, -0.16813708008332767, -0.042797716755763854, -0.3036347695566879], 'd': [0.1601033404956959, 0.14351625154845926, -0.5017304306210706, 0.5676264682500495, 0.4818021454171356, 0.48975372288194513, -0.2950728355870349, -0.27855878842454257, 0.40603671254958945, -0.3874307282499495, -0.4592714874167815, 0.15851690776177227, -0.1658055375706783, -0.2941150526530713, 0.4348955971786166, 0.04303959543961402, -0.3094430490772184, 0.006694736171428744, 0.0030482232169224553, 0.33019277714734857, 0.012691017222893688, -0.22426514495963668, -0.30370510521113836, 0.060543115845652876, -0.21141097982490908, 0.06130829583147684, 0.15361420709920998, -0.24171268605081067, 0.29724053383908905, 0.4641187258601477, 0.19592773304468986, -0.7052983224490418, 0.23890995297945228, 0.13748606243497996, 0.33192009750047635, 0.03972609451121353, -0.3082002408389152, -0.3777676200309376, -0.2608600358390567, -0.25364816052569766, 0.02211156323341414, 0.2973267590435707, 0.09443227332742785, -0.3901857391847715, 0.055480345231634254, 0.18950722880711232, 0.03787512315019861, -0.16785779151022182, -0.013114347206451618, -0.48890197271680336, -0.2739630946928592, 0.10934684254874817, -0.034030543102099124, -0.2963627691593619, -0.054061131333877153, -0.3938694975286185, -0.2956140854853402, 0.2918283023094902, 0.08176652757057508, -0.017338485168619633, -0.1995040993068765, -0.2156644837317934, -0.304682981187093, 0.034392457493637306, 0.5144095161103822, -0.0774386023253615, -0.15507483796477978, -0.11741633642331499, -0.6001623577509492, 0.3107794148431927, 0.4222692022414233, 0.15275122238830122, 0.3921259838287289, -0.12300687494447798, -0.13429922161142668, -0.07352878668354029, -0.4092107423966339, -0.21559344834308378, -0.47721992382271444, 0.16312307198418677, 0.40435518103004514, -0.12987460885211702, 0.3006072293931163, -0.34546163130365404, -0.29903097751599383, -0.1547894063442568, 0.4714247894807019, -0.037799960326769765, -0.2571657289064115, 0.1862056517739215, -0.31385910189364824, 0.5357125063450864, 0.4736553339105507, -0.5029076432765829, -0.06905456963324381, 0.037053338205781876, 0.22489244887212648, 0.5564372020374582, -0.24085342296788181, 0.32116559323275773], 'e': [-0.22664539340770595, 0.17359859919473636, -0.17723973045070482, 0.2162511146717512, 0.3592248987894883, -0.2245614180840844, 0.06817840406865615, 0.4533766996232975, -0.01780772922333617, -0.6511544812377681, -0.2265886372639951, -0.23460751548444236, 0.058588215764792416, -0.06850855991971444, -0.2291827417565887, 0.11158907632614465, -0.26549509931021187, -0.05804331170434951, 0.051100311553147766, 0.2831487842529138, 0.5273149230218496, 0.24989988437915325, 0.3123615174360933, -0.26351711830857616, -0.12026298167759247, 0.569946789719041, -0.1704353058226062, -0.034218006273844075, 0.1311844138435538, 0.5100237061669002, 0.02720520568670238, 0.28352452866426847, -0.58068251638334, 0.10992470087639915, 0.5422358705626933, 0.10040899758522388, 0.17653304977283943, -0.00048005208702099476, -0.4109483078205764, -0.13604509409769758, -0.03738675420691464, -0.4039973927992684, 0.17409116266155727, 0.3641715323820988, -0.07899608415095612, -0.17380448175177818, 0.1730997676720915, -0.5269781315767637, 0.22533064886019513, -0.303323824768275, 0.6754839263446889, -0.07485357367344293, -0.2046374657377122, 0.021316840308483756, 0.4712829507114697, -0.19943663713651688, 0.16148984989787626, 0.289354085210141, -0.4918267328820928, 0.27379080467148065, -0.5451982173036078, -0.142654097678478, 0.0096099858174219, -0.44235564790104687, -0.577953625254649, 0.24180716765349947, 0.597487720467053, 0.1560482973650441, -0.13124273406141676, -0.12649191135700497, -0.2961358583694768, -0.007895607415257086, 0.48102257777704954, -0.3362770159743077, 0.08084596886658389, 0.2764163031817201, -0.05884977865276476, -0.3189585103663054, 0.09206904812726538, 0.3401925175786712, -0.11438770350300902, -0.013417053027709614, -0.05583888535712473, 0.31071151102460925, 0.18882609522133992, 0.01091994767161916, -0.1746569618239536, 0.29910532259949313, 0.23616736934403215, -0.20498317726043983, 0.2711597902941216, -0.14622318941719803, -0.24902993769817527, 0.4522217704159783, 0.009211807347512717, 0.393894242682293, -0.12630909346730004, -0.4792696702660042, -0.2669475083710177, -0.17969144414141955], 'f': [0.08325293794882903, -0.06374919934653775, -0.13393563747202494, -0.2803700434358061, 0.18180531296102564, 0.21636249437447025, -0.29213907499089464, -0.1026880315756104, -0.032156371533981105, -0.09015369610513335, -0.5042363645282257, 0.023478423322565087, 0.34290535924195464, -0.18320617778669507, 0.1706425915966189, 0.29960797329667105, 0.22366326692009553, -0.42831922450260457, -0.0013503923034086972, -0.14686207962631245, 0.34500848419608854, 0.12066273983559571, 0.29006662069217104, 0.14280056262702945, 0.11282430649399891, 0.363756798512679, -0.07709425417141715, -0.40193243919148813, 0.3778033996609082, 0.22526750140041438, 0.06714658747093415, 0.21781556386300394, 0.5359279948864196, 0.10687632167465974, -0.1573610715839113, -0.41739663917713254, 0.15426710981590327, 0.3165937214616934, 0.29456490050979717, -0.2846556376679348, -0.19711595028518702, -0.100123816567085, -0.2719062342335383, -0.48363918244707116, -0.28118312214051844, 0.07774675860288913, 0.345751391444071, -0.04417304560170918, -0.4672662173211651, 0.2655291895214531, 0.27625129229061696, -0.28748859668278326, -0.1679135812473321, 0.2118028506188317, -0.2575599009015893, 0.3002404506242085, -0.2452048247485821, 0.4089748434325642, -0.39997236459633134, -0.08085246995650891, 0.1546112895952132, 0.008627025560192157, -0.4222575186271992, -0.1315429528609443, -0.19093763657458993, -0.43241442955689435, 0.023371488140780664, 0.05276671284270455, -0.28644416251344046, 0.287719632587616, 0.5118744447407253, 0.0961676021170644, 0.3259135782332325, 0.07024731545946299, 0.005176945991274848, 0.13156799519086054, -0.372481829027371, -0.42201825596026454, -0.38068075295448583, 0.09921009009439537, 0.2539441808927049, -0.5122946685226638, 0.04496260491495389, 0.11045487330493328, -0.04175491435558955, 0.20033520690449738, -0.2626145277608292, 0.09446098388963209, 0.2959552995670509, -0.27310537740086516, 0.017396263095747082, -0.28736211490478014, -0.01806049512112613, -0.3929901206132783, 0.21400319469078716, 0.20872311903834473, 0.1080796618228642, 0.41237493421823085, -0.11999486172547558, 0.14045205428413063], 'g': [-0.2509769897571307, -0.2984619599521962, -0.6241836600681682, -0.11542214972443268, -0.25232229316275884, -0.0813819886560559, 0.4030371588622816, 0.5582349391442578, 0.22449453804873398, 0.614049092044015, 0.2594869953045751, 0.07363773282451436, -0.28523846762442806, -0.4190250901794103, 0.14463179464617498, 0.04280860672905734, -0.058938254480357805, -0.3756388539366773, -0.15513486396257728, -0.4954235896614377, -0.3674538614242337, 0.6581784226803821, -0.04041658470832687, -0.4248968391253774, 0.04595297161013904, -0.30383009819453416, -0.06587939330698647, -0.41771189732206304, 0.3377382604833819, -0.5994621868205776, 0.37210729368568884, 0.14562998589912526, 0.4582061214629159, 0.3577946392701869, 0.2499298470090287, -0.19105395062373326, 0.33031172129749087, 0.48273484993293053, -0.1970027910566108, 0.06781982855561658, -0.23384015886976187, 0.462484100787311, -0.5203665100954521, 0.22803082084733148, 0.029651673748135467, 0.22968261607802562, 0.22805275275992706, 0.11755246253482536, -0.3995501730513551, 0.03132511997252393, 0.03690667396642931, -0.14126075006075192, 0.14817201069882457, -0.05404306967756985, 0.008388908185383345, -0.38602926074832844, -0.3805606871367172, -0.2186769462199799, 0.44555047318825863, -0.23704207784951606, -0.22069657009147076, -0.5230359941136151, -0.23285696495096955, 0.6839751989323372, -0.3369973958425669, 0.3361060655691566, 0.3614032570493893, 0.10338644435670932, -0.129116989394879, 0.2296337041269337, -0.3372369277809648, 0.3747622544834245, -0.10221837127314645, -0.16030801122835384, 0.25320189360630296, 0.36684956156328397, -0.4917274309334514, 0.5298733760027301, -0.0536566770680383, -0.16740215242126055, 0.16543576626036555, 0.44678793830346386, 0.21688853562204247, 0.30661475040983344, -0.4762910033321731, 0.10918744454258612, -0.009300629645614232, 0.11763716642537003, 0.38579689193830335, -0.008672683165116804, -0.2543523894935883, -0.32999292363241534, -0.1304364129784881, -0.47280122000368563, 0.2729861927907496, -0.5989177818075151, 0.0699363860580741, -0.15433232417223405, 0.25926749483493744, 0.3378428315984503], 'h': [-0.10380348780724444, -0.4544009562747744, -0.2003173668521965, -0.539018859088649, 0.15757398760111582, -0.26849882998634567, 0.2374302555120124, -0.19148255844022916, 0.1218743193060857, -0.1952966507601691, 0.24370282810498797, -0.40993198848262324, -0.3361968999142483, 0.36995984843328494, -0.4230550294992148, 0.19323505704393726, -0.10170935570201861, -0.4595866093372148, 0.2989772297533188, -0.37274797176985397, -0.12908360244936673, -0.039381548019041195, 0.12329878353921303, 0.2701040662045973, 0.20401651034248872, 0.6755368726031227, 0.32237773287344057, 0.16476386308329205, -0.002973935025907756, 0.5569294736634065, 0.49810574678759745, -0.1075680777552828, 0.14335585502608642, -0.018570303492542916, 0.3965181772264132, -0.3723317032952508, 0.0002991457228987514, 0.05728659066842188, 0.010126672175190208, -0.0709892173613793, 0.48550973852392043, -0.11380767381122733, 0.37092654666195835, -0.5279738715119776, 0.16544636814813704, 0.06147996548221915, 0.13751090265863627, 0.10579305974906202, 0.4606132438379089, 0.20223680819520665, -0.2363935108064687, -0.39535973941919983, -0.03702060081829276, -0.08481394468172224, -0.258527640260956, 0.5628024673932432, -0.20828333251148176, 0.2962278779380838, -0.04123515072080938, 0.2945194757818544, 0.13188842840573495, -0.6116703739769387, -0.07277900706497406, -0.22012843525206358, 0.2990308905531935, 0.44545308869239364, -0.18450895308269114, 0.31582652978145875, 0.25192467099995747, 0.0239049957506935, -0.5183439199540036, -0.09171190322100989, -0.2625538457196554, -0.6183659111493546, 0.3400549572987458, -0.2016416252144075, -0.6121571331542105, -0.3143012364098689, -0.10720053563017629, -0.027814539844863945, -0.2861247325187635, -0.613120948917779, -0.024807634389539906, -0.14660191997326003, -0.3496255056571042, -0.38324387475507216, 0.304193135766783, -0.34933457359212977, 0.2696239361865219, -0.016598813127093017, 0.3143491990194573, -0.2301754562839745, -0.1267015590333643, -0.14663197248037396, -0.020091721552238196, -0.33804265012974966, -0.3024602286187678, 0.2846562589670395, 0.338662355077837, -0.6043473791202735], 'i': [-0.2289835372663847, -0.08150501586388234, 0.11007926867873387, 0.02948232423419838, -0.3218980591078459, 0.030080485882167374, -0.18803119195765008, 0.35265687679954266, -0.5563485383143117, -0.43231779642810697, 0.35498859973173114, -0.29237917707686023, -0.10894203776554694, -0.1356681801756984, 0.21195291330317287, 0.0005036281844694506, 0.029757058809423288, -0.3458779050327929, 0.19427765709075312, 0.08920850784235282, 0.19603051109953235, -0.25606480585413105, 0.4586287371901137, 0.08991217249196189, -0.4651127554376808, 0.1314546005651411, -0.37022234506197504, 0.01373602915150404, 0.3437772473653949, 0.13389559127554143, -0.45825855101010216, 0.021343857158837503, -0.294151842177114, 0.10753385907169809, -0.20380525559644708, 0.5233708636878572, -0.29388371268834745, 0.16664755111869767, -0.11763141353187981, -0.1091970798105098, 0.3525096694225106, -0.312699768567226, 0.5798489238590215, 0.05324770526419766, -0.20642241224148236, 0.493650310218804, -0.29129608320157896, 0.2036907303593456, -0.25898634551245237, 0.20186748243074876, -0.22821698487890021, 0.12280840319227686, -0.23842114413229487, 0.11253561723926672, 0.5418855773544619, 0.42063613538242733, -0.2857396483872701, -0.1193185347102163, -0.5018904629005542, -0.1930879757532177, -0.17847424357957625, -0.5960295710122622, 0.3507279522034432, 0.3159010032265802, -0.3584750491863771, -0.07228406369514136, 0.31367944706931145, -0.005555380258446873, 0.05750795231721978, 0.49999463698942914, 0.2846108590677356, -0.2718591062555444, 0.05350967255558021, -0.43810834041979196, 0.0759431581660112, 0.5795967228082942, 0.34211530413690794, -0.06633978531400199, 0.26951964658968297, 0.2219522485232335, -0.43501609274246283, 0.04782191107659477, -0.1741165306326218, 0.0873637897726638, 0.012275257615453186, 0.1466196377927146, 0.5085676189159613, -0.1161853979274959, 0.17703862347628788, -0.5409822987456891, -0.07928953094735058, 0.2584518436991086, 0.24542292045805625, 0.32406089741536387, -0.30158365493372513, 0.5579919900927989, 0.42527642316597025, 0.569130276425402, -0.10763585788478626, 0.17533718662308978], 'j': [-0.13903357271264827, 0.30391099784281855, 0.05046799030487864, 0.1739867777563855, 0.4882708288686767, 0.08496330579523383, -0.23495259648731798, 0.4566084388479407, -0.2005169739827883, 0.4007217680821716, -0.1651557741828569, -0.4368094526395225, 0.29937243028026594, 0.2740609149593006, 0.017770592311353684, 0.19215359092917517, 0.038585936673190914, 0.14688297133450792, 0.0463530698028315, 0.3192141475475469, 0.2960818101238737, 0.125462682843285, 0.09624212527903908, -0.030095785738179226, -0.3595295788385375, -0.3261910997442241, -0.3229273936197199, 0.3451940298803583, -0.18946191327980538, -0.08680892488041037, 0.10350978697069128, -0.22177205516548093, -0.30425211761826765, -0.1500449705987864, -0.25958483972380136, 0.0905838612019277, 0.11099542852553321, -0.3413082393811501, -0.33136917945069955, 0.2599837166758261, -0.18267189293456843, -0.3396976616698184, -0.15172186504606205, 0.2551127659152901, -0.3875054091534582, -0.3267092588264665, -0.2509975323025698, -0.29483324639301145, 0.04923712152522326, -0.23713759524587757, -0.4152612619229271, -0.49969139410361, 0.4319533881518059, 0.15106774086752028, 0.4231689965724669, -0.07764764468167344, 0.42321513049765946, 0.09994017346274507, 0.3178687647466506, 0.08423379398600282, -0.36310549433209505, 0.028736906984731355, 0.2858055142736808, -0.3967574971490207, -0.23159498086743008, 0.3386579745171879, 0.30986919736405044, -0.026958810623475705, 0.23092413710364262, -0.4674195470435317, 0.027659272341947923, 0.14189534402002438, 0.16663345731053217, -0.5148547033719652, -0.27326432276447155, -0.25759023071608994, -0.4042096638399956, 0.3608707254091005, -0.16931187930405478, 0.10214086094154691, 0.05656062930310833, -0.33373201754866616, 0.03311452528257559, 0.04650543621019379, 0.39803457070119724, 0.37384794630932217, 0.05319016603452688, 0.1899505917465367, 0.12209362817102568, -0.013494049904414595, -0.01930514011044544, 0.4941836499488148, -0.16869488745763267, -0.35778653946554984, 0.19232437659157708, 0.3797244216933774, 0.2601655660224734, -0.4955219395952082, -0.34729319733644365, -0.5213988392260663], 'k': [0.43933435147530064, 0.2897947527148619, 0.027675330586509592, 0.21672001655089138, 0.45893246375213165, 0.2114417680436152, 0.42361096742540416, -0.4498013855456957, -0.4003651016393777, 0.11764120372103479, -0.15381947915733948, -0.2847327296518985, -0.25316623509486375, -0.12880080485698397, 0.19678444731256894, 0.25164828426397656, -0.3942207180799241, -0.221363649870068, 0.3008943499630604, -0.048466652597433754, 0.32630256872687696, -0.0007045526291597787, -0.12577319034519133, -0.3043971646849053, -0.42160006955315255, 0.32745869308063574, 0.30870332928496264, 0.36148360953621644, -0.14121501425328964, -0.4472496145475306, -0.3910819912309407, 0.40077698648276616, 0.324054362010844, -0.1412323243805207, -0.0050318611855421184, 0.10234213715202327, -0.3553803434066576, 0.288996836275317, -0.21989610903908305, 0.10199132308166593, -0.3923201116049757, 0.06388045369185946, -0.18488191718767816, 0.1690736669676445, 0.3335999748620425, -0.012695687806432456, -0.34262786849557575, -0.01632890053909638, 0.25947978012264644, 0.11379265822959002, -0.5238609453359452, 0.047563491210841184, 0.07101770880010719, -0.008178431971584403, -0.3517983230029908, -0.5103313258410623, 0.11135939079456547, 0.0445376050219873, 0.17897068967331045, -0.020439351715361674, -0.06775066793054807, -0.2869125768437109, 0.31773886619232306, -0.06518878035458044, -0.035172714194999115, 0.4813033011277228, 0.5590791653344998, 0.16807617357528945, -0.1703812747866701, 0.35948089588254506, 0.4568025014320534, -0.35341527716921034, 0.06937398554983026, -0.06286385626784934, 0.4434304267518067, 0.3984461393518643, 0.4103140137575405, -0.4311137695578485, 0.1442049186604521, -0.04472197523205108, -0.1434705811475727, 0.2372556651769197, -0.005038633964541555, -0.41797305104614946, -0.24171200067702583, 0.10201447987172965, -0.3542047634576425, -0.25380878532645573, 0.27464109476141546, 0.4048133468389245, 0.39317109432049835, -0.014598027522491236, 0.03972042342763541, 0.3993174059887342, 0.31052269741133987, 0.4811300058938106, 0.30355651333407174, 0.46036471867106554, -0.04744951283596239, -0.3255034342577891], 'l': [0.2393593198740307, 0.39578743356129115, -0.19258880531805733, -0.06030603146757203, 0.1883274484592138, 0.2762176947747184, 0.2508967497902967, 0.1346257258516926, -0.07729433242133542, 0.40615069165017137, -0.5432838991885391, 0.12165429890194582, 0.40655663952153037, -0.16040279466481333, 0.03641935773691832, -0.06447428210918413, -0.28216014194606975, -0.49304273698250206, 0.13140429265722708, -0.4153537513115221, 0.4256827942310386, 0.4903599328172663, -0.1901897826611343, -0.3303448059758561, -0.3077309927372452, 0.3865055746402928, 0.4472060698745028, 0.06817772668326778, 0.27273523522462634, 0.30979881015358846, -0.14203005844245253, -0.7108909265781136, -0.28740038400042606, 0.2973651528128695, -0.3798246793959052, 0.03487130788563791, 0.020836232487593035, -0.26328550803162365, 0.366588793476972, 0.31892905838809155, 0.03830039517399609, -0.15808763555250446, 0.17279050801589071, 0.1099487451262025, -0.22081426471918025, -0.38939596450762093, 0.01855206235951827, -0.05830426651148604, 0.20277379098880355, -0.27528278732128103, -0.39081971187352477, 0.24464328085453624, 0.3781743274327389, -0.523369606025447, 0.19112609210522805, 0.31250146708796755, 0.3434953921506564, 0.23123292098342826, -0.32615983746227845, -0.2856812584171835, -0.24593920163171387, -0.43473601256867345, -0.3746993217683997, -0.35192382796206617, 0.03831160811206146, 0.3741596878984178, -0.3594066721677224, 0.29433334965345237, -0.5306545620546359, -0.45341621649501784, -0.4660038536183755, -0.33096875723303243, -0.3665578116731837, 0.027270498339567316, -0.2634543040964482, 0.43297205288759455, -0.10556150730177613, -0.042861028414629375, 0.08998354455991163, -0.4042374757050213, 0.020612249169417424, -0.20225553315064088, 0.326500482287964, -0.5360586508020534, 0.4497364152671302, 0.16621409109311713, -0.547313049014302, 0.10491900564478675, 0.3231818721249468, -0.12977206373850386, -0.20669876688467254, 0.08621055247933242, -0.0671730334828166, -0.09217475228529412, 0.5320980527680059, -0.015488905077884462, 0.12571564475466093, 0.1785640749790491, 0.10201866970961776, 0.16875622486646183], 'm': [0.2521461866091608, -0.4273832341917944, 0.39100105095313187, -0.14514935272804835, 0.061066261090550814, 0.16756376823612984, -0.3336786098311658, -0.40316085141524083, 0.5284082302799726, -0.26418179746728787, -0.42946232287645913, 0.326366735492513, 0.4179761041245074, -0.05027586770242754, -0.1152306908208505, 0.04406874014497935, 0.1620495558705177, 0.056065632195015806, -0.04441707434663086, -0.08892929085697901, -0.13861354280747906, 0.07371647927920566, 0.26341909882259906, 0.19559045200071856, -0.12403448535093127, -0.377887668047956, 0.4326117586808847, 0.24221711154264042, -0.40342833326424604, -0.0011861960942466025, 0.45264491637903276, -0.4254322034333102, 0.48141490269263654, -0.2736029794340404, 0.43923275442494886, 0.23461449278976326, -0.14776948323358846, -0.4513847841257609, -0.45373115925027785, 0.4912513923695782, -0.2435249039216863, -0.18320185002275435, 0.41014847581716807, -0.16748859861828938, 0.06221769177050362, -0.11516130776298157, 0.14506201913215336, -0.08913926363266286, -0.29211671381581555, -0.14978690568715136, -0.032818817755836116, 0.11939112700431108, -0.24045111826893548, -0.38304364144441977, -0.06177614935399164, 0.27831849797841324, -0.26099399666796014, -0.3374082483795967, 0.2863850499022737, -0.32495624483124513, -0.4390140841673916, -0.06157116693476658, -0.05170642941241703, 0.5015499363300777, -0.2758274430426726, 0.09681687698792951, 0.42526380558724747, 0.5146984388512867, 0.09212850314432498, 0.032060768809910024, -0.045132129752296045, -0.457726221160747, 0.4064069853224796, -0.1632239107828483, 0.42188353284963265, -0.34980131595718117, 0.24228827791474808, -0.35834042758044565, -0.425006325099202, -0.18046927979618815, -0.20890299139129487, 0.3082504926286462, 0.15975727114741248, 0.03282516264775751, -0.42459714831329803, -0.3413187223892694, -0.284384795077276, -0.5125749075944671, 0.538193090673171, 0.3168818273970118, -0.3471815331724024, -0.04195148927309795, 0.419969707574516, -0.36286928983518785, -0.22117622648363294, 0.3875569064369215, 0.10287046736650156, 0.21498133892393653, 0.21877110618622, -0.33798096093533103], 'n': [0.3940053417672425, 0.6018210469180348, -0.40321797986903973, -0.5034477565949176, 0.5352262414449319, 0.2310991315280364, -0.022233432232763133, -0.5712028099618349, -0.33817408723113984, 0.08396361565789645, 0.24069136736193378, 0.46299039744416387, -0.16577431471860365, -0.46375271714424016, 0.3326864905702291, -0.2244316909028985, -0.46692697030148805, 0.1982318847638965, -0.03369609164378492, -0.3714690577447734, -0.31656948705889554, 0.2555754038064526, 0.541691038462196, -0.3572743197425351, -0.3393937860007342, -0.37435515849928985, -0.5148104342862204, -0.22696625599898826, -0.11381741126162578, -0.31513465438545013, -0.20912712408290962, 0.19297357991556977, 0.2526704456042285, 0.08858967739803965, -0.3101388575242559, 0.2627575405785387, 0.2362622981884193, 0.48967401355453555, 0.15410099605314675, 0.42543390121640273, -0.3453687430759958, 0.43820221050836333, 0.47166246744409174, 0.16415948836690755, 0.14072095990651406, 0.0669043866012115, -0.12470699132539285, 0.027075442167168222, -0.19938035911029148, 0.48491539359171093, 0.007792008526896386, -0.39906411354856314, 0.3207768588180733, -0.31429470686312694, 0.40679756038250037, -0.11969372459265644, 0.07852791691833473, 0.25262539144492496, 0.08578670907397191, -0.13194433571144712, -0.2908324255640549, 0.009646074835352708, 0.01187557550171269, 0.46442688281537764, 0.2678576546912435, 0.43003813961966825, 0.3372982945716575, -0.6602413397234805, -0.5778500039099544, 0.45747163744956537, 0.3221229513879705, -0.14638993075933812, -0.002015654244106548, -0.2623548172535147, -0.3066846463940492, 0.36035064625600516, 0.1665557608453939, -0.5352773068429412, -0.4579025769530623, -0.30967465499910196, -0.3659736924767691, -0.03726065952540269, -0.39365474401413064, -0.3700374276944668, -0.06954628647337589, 0.3653905742113001, -0.46681830511392597, 0.1233539222014577, 0.44498509097089967, 0.5311448162082476, -0.17461267614788273, 0.10050723200941936, -0.17941386048536279, -0.10417170157695715, -0.03068456051936657, 0.20275087226825494, 0.4170199191107207, 0.24517129399716991, 0.21405318894197745, -0.10505024029686207], 'o': [0.16929383230556885, -0.06402868606762115, 0.2841127568657445, 0.3312328509848133, 0.29346031572012765, 0.10110828766052263, 0.21572945983771905, 0.22832491845457428, 0.4550724085409102, 0.04309946338744645, -0.025125345689250275, -0.25829101456593984, 0.3115360934530375, 0.049376049655457326, 0.14871741159473276, 0.22938683386707842, -0.37881344929763383, -0.26206789362375904, -0.5288637746575936, -0.036743905580856495, -0.08860708280846787, -0.5843975887396309, 0.5492444452768017, 0.5141968055598964, -0.5156574266951407, 0.3294323517165758, -0.22143755084554845, -0.27169338302662616, 0.16119080312430653, 0.4354672369569708, -0.5105366078085725, -0.35267219322110577, -0.006123903954720934, 0.08895993279546724, -0.4470724388653414, 0.07875994471164995, -0.48877992675636317, -0.3104472568307879, -0.2164800536993437, 0.13728526979676808, -0.16976030090382815, -0.2168796164443595, -0.11530448564907259, 0.3680741547417093, 0.11324410215111565, 0.2342877613052622, -0.3695537763786951, -0.33595078956165253, -0.26473075294165865, -0.16779954188347687, 0.4782175990138068, -0.3006575749023597, -0.2600042483697388, -0.340747380002693, -0.27515803726396426, -0.13023502935628972, -0.30415531342304425, 0.28979269945686753, -0.08758508827311869, 0.4784736007468827, 0.3688621798085447, -0.3705089253522001, 0.4897135909570527, 0.11845905361230684, -0.08878061757096363, -0.529928252310605, 0.4235187546357001, -0.33302795986998224, 0.19029121518794087, 0.2874554804922223, -0.26991161806450553, 0.3607973912639269, -0.12254523157578126, -0.26403603252026264, 0.10871579812048983, -0.25562365785713265, -0.32824063852215746, 0.26058316071438575, -0.5344816560910769, 0.3662667603992403, 0.2821744220073397, 0.39233198033265104, 0.32311992368143916, -0.04447641845104068, -0.3872439744390725, 0.414174057729159, 0.4300528813373867, 0.317442564847028, -0.17281137830932164, -0.4393752053308198, 0.1838374191672133, -0.34445716285441974, -0.3481927188265478, 0.4873725465708427, 0.2791475846024528, 0.09511714084461738, -0.5309259558179346, 0.2415282604844613, 0.42647132049370945, 0.026124599829501934], 'p': [0.5933581332139687, 0.0050710649387713, 0.3026742161699036, -0.37319958553682236, 0.22417009360868234, -0.3374838212119218, 0.610795651461067, 0.5540838749144988, 0.635731674001945, 0.07724316780419833, 0.3428069501912559, 0.5855215635429859, -0.3715775900539068, 0.21839735254787795, -0.08534821536437762, 0.040542426707258966, -0.02190441881617541, -0.3282300479452847, -0.3526503179341644, 0.24392945476085523, 0.4608330072456671, -0.03242115124632219, -0.06424305802842237, 0.26102657246502564, -0.4567002469383985, 0.6008577777239633, 0.13819896081153432, -0.31208298180051175, 0.07284802689646064, -0.22766675251085575, 0.5812140642299254, 0.28423250438376463, 0.6686067776405241, -0.3210886115186859, 0.4997817159741397, -0.25330739693756965, 0.4335871624757796, 0.47121348576054894, 0.3503913865963368, 0.334025204931703, -0.21999494695834024, -0.2425905383707031, 0.5656792633522454, -0.16046771185429318, 0.2606729301041591, -0.027416768831031675, -0.2857002954546555, 0.45780957347627427, -0.2485962413680059, 0.46944774376322423, 0.5670598727302372, 0.25498257589868684, -0.3166627987712624, -0.18872911627040584, 0.42057712560565996, -0.016885209716589192, -0.015192640567287962, 0.24478324664275977, 0.05109882413854786, 0.24360732546422742, -0.1719233945979121, -0.1589231434998753, -0.3735302754971246, 0.31873339028208747, 0.2647331533492083, 0.39235512163840164, 0.46558790748748924, 0.6925567741561172, 0.2579571578827925, 0.08938937652944785, 0.006633868389254439, -0.37292712031867203, 0.4590978563295426, -0.2311507927752735, -0.3726514741868891, 0.290332237943609, 0.49113541299928287, -0.1908695463067524, -0.3560275359240834, 0.6046307353283267, 0.14511642784384157, 0.15799813517383576, -0.07818051666063579, -0.2155352522800375, 0.3616081792707721, -0.23269081798011995, -0.41210250617118305, -0.06221611873777652, 0.32526554877367386, -0.08791475887524973, -0.32124898841307065, -0.18203242545305864, 0.22684274053155742, 0.09776047616401844, 0.56972512726757, 0.2731477231903448, 0.48162642762139696, 0.5059623556203603, 0.39630986451980926, 0.2776635074558734], 'q': [-0.49978000822351676, 0.06994840445184941, 0.06668106500759598, -0.018950918628700877, 0.1639706193915286, -0.4608509352880101, 0.33383936064540853, 0.27383511142000666, 0.2671012375705625, -0.26433477157640084, 0.3058738275210692, -0.06708761237103812, -0.26684682571469565, 0.1869360215392312, 0.12296424967667523, 0.2578509909391701, -0.2435167912794146, 0.09132006930219802, -0.32955554203803716, -0.08851226266662392, -0.36699928358638606, 0.17695558550920332, -0.44786256298327304, 0.34819948650405, -0.0682171735488859, 0.07734748929568373, 0.4850920602008737, -0.08964350140986764, 0.2002807187194128, 0.381532089813143, -0.11133069060756685, 0.242994311133421, 0.3074780867271494, 0.12434842412605815, -0.4582068031776066, -0.4468155149980962, 0.20478679425794305, -0.4624745572619503, 0.12374624412832287, 0.5389009919300508, -0.11242887533042266, 0.23345359225030296, -0.31496941472679224, 0.1762339192269512, 0.14640459323691815, 0.1669660853461282, 0.10244556436856606, -0.43227786375474525, -0.2362900275111788, -0.5060107080605425, -0.027998625610111322, -0.2675182501311203, 0.19572592764740676, 0.4014522555709676, 0.024195220609538683, -0.349653792298477, -0.5235769364355535, -0.1813754720882486, -0.44170915917022036, 0.2991542497509782, 0.07337950881542232, 0.20661804211634494, 0.07444877315555404, -0.19219759349103122, 0.4681286362137573, -0.11070154923125027, 0.07575514275556153, -0.3502733060985658, 0.3741995452032691, 0.2003369389543613, 0.16263293565642742, 0.30153444729645446, -0.2901336628462159, -0.08704693558917148, 0.25198304112137054, 0.18117879539128506, -0.08786033844365182, 0.4465152798416828, -0.5726616159412962, -0.14198674827753027, -0.23167142919762482, -0.35211348238470536, -0.30237312371984754, -0.0023266538041259465, 0.13476810320666266, 0.07460383263447269, -0.33808957615266305, -0.5084168764490009, -0.13743552537003004, -0.4426704207348057, 0.2870473040953898, 0.28794244631471916, 0.2020710360362877, -0.3389466429663542, -0.11571043473194265, -0.15557576867761375, -0.45698171084438444, -0.127534332281132, -0.043566924472930105, -0.29226506234621596], 'r': [0.425587795513364, 0.06744686750192476, 0.1512499868512606, -0.47427610196579795, 0.13132145621410923, -0.4934467116096395, -0.18529264821096506, -0.01693784237930055, 0.3496756859169218, 0.16618082770251064, -0.15562130222371806, -0.4236626802503164, -0.18777148620971768, 0.06381490234568594, 0.13233179483644197, 0.052700580963755565, -0.5028059898869193, 0.021400493189006352, 0.3963989530584046, -0.24606594170937773, 0.3376822876501695, 0.12435097144757765, -0.48278858480552034, 0.07816807539008186, -0.3869243943333845, -0.24231116298846647, -0.08435199878649992, 0.034291332940840476, 0.1969846926698153, 0.4204249242193354, -0.28887195936343496, -0.6341424627151675, -0.2791438492729768, -0.18567303909009197, 0.47267102382445203, 0.15738469640448027, -0.05744880523897331, 0.3046133895923496, -0.4611395575477462, -0.07177348544213885, -0.1809322673490049, 0.24087848248050572, -0.49716935469175755, -0.4375567524476087, -0.3999524938397549, 0.4589637173654197, 0.264167731591335, 0.053366415588044995, -0.09136439836577587, 0.25380981384996604, -0.3169467654978244, 0.43034149992527176, -0.08811492410729055, 0.34147748482646734, -0.024312126630727404, -0.12639376469230462, -0.24128009420525615, -0.08970845637284672, 0.14309116229908445, -0.3905412736078514, 0.40779535419125107, 0.06928928107672377, 0.16951090632231963, -0.04315193810804306, 0.3985597594940904, 0.44285248875336525, -0.020712982919244796, -0.25814649836615877, 0.13477479318821511, 0.4096135082659766, 0.22001608733311032, -0.019124649975316026, 0.33224825230521493, -0.21707384106492883, -0.43100116886456896, 0.10730518617055919, 0.13609602404039922, -0.46263708264427933, 0.1680542784899178, 0.46424034366317146, -0.18159520416868546, 0.26114873634039015, -0.15049816646195918, 0.030138971058877778, -0.4330313273415589, 0.10449551743350621, -0.21365878249906478, -0.16562589357497542, -0.2411651611252452, 0.3102755213528431, -0.21452311595322088, 0.3430994741653786, 0.26023732662985416, 0.49154264781850554, -0.005432251251302734, 0.036326287527542335, -0.32669488044335393, -0.19007454917929406, 0.04205210478632658, -0.45401541870603324], 's': [-0.5313412767579831, 0.29862835791182973, -0.431170795306546, 0.02803940434037763, 0.5401213043819306, 0.0788655646433092, -0.1404813567647806, 0.14162097444195795, 0.1408948659540965, 0.28039720182140276, 0.04126170805732609, -0.2909133344198861, 0.12632825656913937, -0.28767435120842916, -0.2508862350352168, 0.2794085852647923, -0.5907857609793659, -0.5978702299128692, 0.08440965669637575, 0.6877168301008028, 0.6912420940799373, -0.3294480720496899, -0.6423509823048777, -0.587852011465539, -0.18426766247102935, 0.46111522969838403, -0.09390014758991883, -0.1553843144294267, 0.2094092831377263, 0.37350204605060183, 0.17787811403679543, -0.7382412772618455, -0.30659576541956224, 0.08986488362569564, -0.07651794843621401, 0.19771426106987847, -0.5926794741468359, 0.32775945529720363, 0.5529357618645517, -0.3153915222304225, 0.34542295594754413, 0.22375092260249774, -0.5506246666720263, 0.19063541748291218, -0.15832253621576778, -0.42044853878899413, 0.07209394359010894, -0.11611090188015044, 0.006146666366008762, 0.16318545134278992, 0.3744008120804373, -0.10111487019292915, 0.2886688528497628, 0.1377037068603638, -0.22178800575000554, -0.06057855420339624, -0.2333236754012174, 0.5925218701360746, 0.11954881959954504, -0.3055772554657639, 0.05944980038870397, -0.0666494789479907, -0.3431842320247807, 0.21509965963590086, -0.15207809350583276, 0.5065081957452046, -0.43907373035177016, 0.2943853234299821, -0.12279310451165168, -0.41403683721223095, 0.054689750825623135, -0.03369918622935425, 0.4202412207360529, -0.4191614972501585, 0.05512956079752192, -0.027886099819501017, -0.3944646444585383, 0.4862031117957684, -0.3029113965174571, 0.27312154936266425, 0.15844964097192804, -0.13229882177341626, -0.3420559785076466, 0.01464145019776964, 0.249924567747864, -0.09011955382825261, -0.22064021780418622, 0.018948925001134927, -0.33658315139576667, 0.03313987109290997, 0.3436309647315699, 0.6374075349299135, -0.02941940786869806, -0.22290388755521554, 0.1804560086709825, 0.05911048990346129, 0.34196157067379507, 0.4420691988322666, 0.03323311908648418, 0.3888618637106964], 't': [0.36997898555134406, -0.2708106441300161, 0.08489472979025842, 0.24723031929162873, 0.018039673298600883, -0.10044523584534976, -0.4680216258071135, -0.4943643264926131, 0.420780918400914, -0.1590266639628127, 0.24475916097318395, 0.06573819424400783, 0.20428884615274512, 0.3798708094705049, -0.408837010130382, -0.34442702197214137, -0.25123102958811055, 0.20400008291537897, 0.08523568705151033, 0.5023599251397662, -0.17330303234875816, 0.10497628818278698, -0.37141946384411745, 0.00673773132132893, 0.09036135916624415, 0.09551154148823134, 0.10434667863099394, 0.3497845125505532, 0.389510492925312, 0.011986974320065891, 0.10588499911149608, 0.3781085515869478, -0.28760908524318357, -0.5480058455502388, -0.4514735815110899, -0.08050015228553031, 0.13925822705633908, -0.31039395665857633, 0.1681796468887958, 0.2563161900884067, 0.07900015194787943, 0.3949915671689594, 0.2908489610762481, -0.2716967966035895, 0.4098892053854072, 0.030643440322879665, 0.35911997780169924, -0.023613092268143815, 0.32277447231407125, -0.0892947691736812, -0.3703022815830326, -0.12660107373022964, 0.013541825086636022, 0.012348538821249347, -0.16554100847406408, -0.4406562849447218, -0.2452707451219368, -0.44864509133642183, -0.006878078760255728, -0.3790362269084406, 0.2050288953325408, 0.3851948765846185, -0.200094797412451, -0.4393100705884004, 0.3456530724063455, -0.22838474892170502, -0.10754028425898793, -0.40099193034803027, -0.22423066065527264, -0.18576201789120014, 0.07821065774389693, -0.09074633164787964, 0.4502947853085101, 0.3296621271220088, -0.04909485342099952, 0.2522940571192737, 0.1368702905272843, -0.012811313518687362, -0.34112951988704415, -0.12530645661435288, 0.4128097812355501, -0.5400521616243407, -0.1930849259886894, -0.033998675537991005, 0.13273216276472985, 0.06837474175346704, 0.19810827502048248, 0.3435600045751126, 0.5691212184418465, -0.39529575157483504, -0.5017220901081153, 0.35004077633138897, 0.43926331694356796, 0.23814571150957328, -0.4061082047922334, -0.18458214154429603, 0.2794909581363444, 0.3388566638719869, -0.49607646170350334, -0.503656799160305], 'u': [-0.37541510694458163, 0.4612586223283151, 0.28118496576305546, -0.20268698325472573, 0.40348028746595316, 0.3787139513811224, -0.2024444257477705, 0.11294058438423246, -0.40737974714844155, -0.32685219478717714, 0.2881799583471915, -0.2950281335032282, 0.14845549319106835, -0.2715444630310455, 0.11950179956304505, 0.418891025683553, -0.33277938156271375, 0.5427142304824087, 0.14921227326565967, 0.46528576508277014, 0.21086348392036405, -0.23766805583412082, 0.17861559865678522, -0.3041229180245358, 0.07958251064315588, 0.46250740915692823, -0.41367532375091104, -0.2054301199946146, 0.13547538481235263, -0.12339677040426397, -0.25310190370921476, 0.25563006948687494, -0.4390630121376674, 0.17515887026456486, -0.2726989835683437, -0.018214317820752456, -0.4664715207896738, -0.16332703753895075, -0.10875698726625756, 0.3377850458866231, 0.25884950364689663, 0.04531439200852137, 0.3482283257462754, 0.3893578607948403, -0.25497523595102045, 0.07847565485291137, 0.044965100808322396, 0.420343783425072, 0.1559928104033371, 0.16542217932318398, -0.2302836105442463, 0.13354546065552408, 0.04672756079711049, -0.058951289901007044, -0.10015513672412193, -0.1729447389608986, 0.226770859450343, -0.351524461469151, 0.08824473482228562, 0.35309335491446775, -0.30366132578117006, -0.2700516712928176, 0.39954433504313464, 0.43736160580838535, 0.08702933295853629, -0.2781965758730064, 0.0288710619996727, 0.3914858322207774, 0.5380372584225205, -0.4669049146820689, 0.33079207848139747, 0.32199854072913636, 0.08747400760626134, -0.024186791722868577, 0.34395185279319523, -0.04208270656845051, -0.21499457774376293, -0.33263632449048336, -0.09676237867844678, -0.1330859734995887, 0.15382808659241637, -0.18713867240755946, 0.5401336750206379, -0.3159377183428044, -0.13502076903463478, 0.053937451387916814, 0.36602539989522004, -0.3467704158448822, -0.05248450419126013, -0.5405391943131209, 0.22262072924951407, 0.45312588201899223, -0.2791620313345867, -0.09655200655829645, 0.28012586789371285, -0.17461674173886188, -0.44130132961871055, 0.13729712053178675, -0.40805716530586644, -0.0475357014006059], 'v': [0.03825361818504718, 0.5243644125586778, 0.2543793804211053, 0.7453072478117401, 0.7792109552626306, 0.10790886255854026, 0.6959346860321769, 0.3902392020064198, -0.019605509007856223, 0.24736472304932516, 0.9112430694692567, 0.6519556496714781, 0.19722592160466565, 0.9236077944387437, 0.10029761668137135, 0.11280209218062767, -0.07350984739296312, 0.20307081829521226, 0.0671038131266735, 0.7892856605616806, 0.1963506037210086, 0.11667110563266712, 0.3718362327367163, 0.8158491336230843, 0.8401122220604971, 0.8381648439353827, 0.738036234386508, 0.6112667968007466, 0.8383787246836053, 0.31526504515533116, 0.4826631655733363, 